SVM-light Version V6.02
0 # kernel type
3 # kernel parameter -d 
1 # kernel parameter -g 
1 # kernel parameter -s 
1 # kernel parameter -r 
empty# kernel parameter -u 
1512 # highest feature index 
453 # number of training documents 
199 # number of support vectors plus 1 
1.1727362 # threshold b, each following line is a SV (starting with alpha*y)
-0.049269229956040001827677343726464 19:0.49042901 20:0.112964 21:0.14842901 22:0.055743702 23:0.078795597 24:0.077632003 25:0.032800801 26:0.039720099 27:0.0153322 28:0.071463101 32:0.0055984599 33:0.0055984599 34:0.0153397 35:0.0461367 55:0.27695999 57:0.045088202 58:0.0149912 59:0.0054338099 60:0.0054338099 64:0.118227 66:0.19922701 67:0.086547397 68:0.488626 69:0.49680901 70:0.132763 71:0.23514301 72:0.015702499 91:0.122675 93:0.019971101 94:0.0066401102 95:0.00240682 96:0.00240682 100:0.052366599 102:0.088244602 103:0.038334899 104:0.216429 105:0.220054 106:0.058805201 107:0.104153 108:0.0069551799 111:0.0575298 112:0.0313395 113:0.242511 114:0.253443 115:0.22383299 116:0.613832 117:0.0085437801 118:0.073517397 120:0.0061925999 121:0.00205894 122:0.0058347201 123:0.0058347201 127:0.0081686201 131:0.0251978 132:0.051131401 133:0.058326401 134:0.22289599 135:0.048951101 136:0.45254901 137:0.0061339601 138:0.15920199 139:0.067072801 140:0.054918401 141:0.0517832 142:0.018327501 143:0.059245601 144:0.0061339601 147:0.051324699 148:0.0279593 149:0.216354 150:0.226107 151:0.199691 152:0.54762501 153:0.0076222499 154:0.065587901 156:0.0055246698 157:0.00183687 158:0.00520539 159:0.00520539 163:0.00728756 167:0.02248 168:0.045616399 169:0.052035298 170:0.198855 171:0.043671198 172:0.40373799 173:0.0054723602 174:0.14203 175:0.059838399 176:0.048994899 177:0.046197899 178:0.0163507 179:0.052855499 180:0.0054723602 181:0.038650099 183:0.0138117 184:0.0045921798 185:0.024725599 186:0.024725599 187:0.00179095 188:0.0053865602 190:0.0631155 192:0.0150487 193:0.0147247 194:0.152035 195:0.199361 196:0.032271199 197:0.0545744 198:0.0195936 199:0.026677599 203:0.0165271 204:0.018248999 205:0.0554059 206:0.155589 207:0.10607 208:0.41544899 209:0.100263 210:0.090618901 211:0.036833402 212:0.0544107 213:0.0516636 214:0.0096564498 215:0.027980199 217:0.0613412 219:0.0219204 220:0.0072881998 221:0.039241798 222:0.039241798 223:0.0028424 224:0.0085489601 226:0.10017 228:0.0238836 229:0.0233694 230:0.241293 231:0.31640401 232:0.051217299 233:0.086614497 234:0.031096799 235:0.042339802 239:0.026230101 240:0.0289628 241:0.087934203 242:0.246934 243:0.16834299 244:0.65935498 245:0.159126 246:0.14382 247:0.0584579 248:0.086354703 249:0.081994697 250:0.0153257 251:0.044406999 253:0.018794799 255:0.0065761101 256:0.00218646 257:0.062580302 258:0.062580302 259:0.0053203902 260:0.016001901 262:0.045851 264:0.033575099 265:0.0095120203 266:0.0078483904 267:0.0078483904 271:0.0111529 272:0.0079868203 273:0.0108743 274:0.0126271 275:0.027145 276:0.027758099 277:0.0294967 278:0.057141699 279:0.0083749602 280:0.408528 281:0.034587499 282:0.13107 283:0.049144998 284:0.052049998 285:0.0496719 286:0.00189493 287:0.00569931 289:0.0143443 291:0.0050189402 292:0.00166872 293:0.047761802 294:0.047761802 295:0.0040605599 296:0.0122127 298:0.034993801 300:0.0256247 301:0.0072596399 302:0.0059899502 303:0.0059899502 307:0.0085119903 308:0.0060955998 309:0.0082993098 310:0.0096370997 311:0.0207172 312:0.021185201 313:0.022512101 314:0.043611001 315:0.0063918298 316:0.31179199 317:0.0263974 318:0.100033 319:0.037507899 320:0.039724901 321:0.037909899 322:0.00144623 323:0.00434975 325:0.53357702 327:0.296819 328:0.0531528 329:0.26458201 330:0.26458201 334:0.034993801 336:0.048850998 337:0.037301801 338:0.30656099 339:0.30656099 340:0.021059699 343:0.035781901 344:0.056942601 345:0.149983 347:0.0300285 348:0.0300285 349:0.0155748 350:0.046843499 352:0.29114199 354:0.080637597 355:0.026810801 356:0.110577 357:0.168155 358:0.0185878 359:0.059787799 360:0.019056501 361:0.49614 363:0.275994 364:0.049423501 365:0.24601801 366:0.24601801 370:0.0325386 372:0.0454235 373:0.034684699 374:0.285052 375:0.285052 376:0.0195821 379:0.033271398 380:0.052947398 381:0.13946 383:0.0279216 384:0.0279216 385:0.014482 386:0.043556798 388:0.270715 390:0.074979901 391:0.0249297 392:0.102819 393:0.15635701 394:0.0172836 395:0.055592898 396:0.017719399 406:0.0534981 407:0.0145377 408:0.0208079 409:0.0118214 410:0.049055301 411:0.051830702 412:0.031625401 413:0.0049779299 419:0.038914401 420:0.038914401 421:0.0123097 422:0.039784402 423:0.0556578 424:0.31330299 425:0.15452 426:0.259514 427:0.12517899 428:0.100622 429:0.092352703 430:0.016965199 431:0.0080891298 442:0.0475839 443:0.0129306 444:0.0185076 445:0.0105146 446:0.043632299 447:0.0461009 448:0.0281292 449:0.00442763 455:0.034612499 456:0.034612499 457:0.0109489 458:0.035386302 459:0.049504898 460:0.27866799 461:0.137438 462:0.23082501 463:0.111341 464:0.0894982 465:0.082143299 466:0.0150897 467:0.0071948902 478:0.0093864202 480:0.039887398 481:0.165115 482:0.50669903 483:0.57504702 484:0.093406796 487:0.041978098 489:0.00719041 490:0.0023966499 491:0.048040301 492:0.072430797 493:0.041388601 494:0.083859898 495:0.084800303 496:0.162843 497:0.131651 498:0.24114899 499:0.199515 500:0.093774602 501:0.081886701 502:0.021414399 503:0.0251207 505:0.135975 506:0.031320099 507:0.0411532 508:0.0154554 509:0.0218467 510:0.0215241 511:0.0090942997 512:0.0110127 513:0.0042509902 514:0.0198137 518:0.00155222 519:0.00155222 520:0.0042530699 521:0.0127918 523:0.0418186 525:0.0118227 526:0.0039308802 527:0.030450899 528:0.041254401 529:0.027002599 530:0.0094350697 531:0.0082438001 532:0.052099299 533:0.0042510298 534:0.037158702 535:0.0167375 536:0.036204599 537:0.0351533 538:0.00289982 539:0.0087216804 541:0.076789498 543:0.0125011 544:0.00415642 545:0.00150657 546:0.00150657 550:0.032779299 552:0.055237301 553:0.023995999 554:0.13547599 555:0.13774399 556:0.0368095 557:0.065195397 558:0.0043536499 559:0.87447602 560:0.051728301 561:0.33362699 562:0.092628904 563:0.0063471599 564:0.0052958298 566:0.0020111999 567:0.0041138702 568:0.0485023 569:0.061050098 570:0.080389403 571:0.029110599 572:0.034467299 573:0.028214 574:0.0161785 575:0.0528474 576:0.069966801 577:0.032982402 579:0.0053694402 580:0.00178526 581:0.000647098 582:0.000647098 586:0.0140793 588:0.0237254 589:0.0103067 590:0.058189198 591:0.0591636 592:0.0158103 593:0.028002599 594:0.00186997 595:0.37560299 596:0.022218199 597:0.143299 598:0.039785799 599:0.0027262201 600:0.0022746499 602:0.00086384697 603:0.00176698 604:0.0208326 605:0.0262221 606:0.034528699 607:0.0125035 608:0.0148043 609:0.0121184 610:0.00694896 611:0.0226989 612:0.030052001 613:0.00219621 617:0.0067746802 618:0.0137472 619:0.0156816 620:0.059927799 621:0.013161 622:0.121672 623:0.0016491699 624:0.042803001 625:0.018033201 626:0.0147654 627:0.0139224 628:0.0049275202 629:0.015928799 630:0.0016491699 631:0.80689198 632:0.018399701 633:0.30996299 634:0.109676 635:0.086475201 636:0.0899316 637:0.0217648 638:0.0151735 639:0.0016343599 640:0.036237501 641:0.00172299 642:0.019230001 643:0.0062469402 644:0.0114517 645:0.019093201 646:0.044775799 647:0.14001299 648:0.023507601 649:0.0012038799 653:0.0037136101 654:0.0075356602 655:0.0085960403 656:0.032850102 657:0.0072143199 658:0.066696003 659:0.00090401201 660:0.023462901 661:0.0098850802 662:0.0080937799 663:0.00763172 664:0.0027010699 665:0.0087315198 666:0.00090401201 667:0.44230601 668:0.010086 669:0.16991 670:0.060120098 671:0.0474023 672:0.049296901 673:0.0119306 674:0.0083175404 675:0.00089589198 676:0.019864 677:0.00094447401 678:0.0105411 679:0.0034243199 680:0.00627736 681:0.0104662 682:0.024544301 683:0.076749802 684:0.0128859 685:0.0044070398 689:0.0027302201 690:0.00301466 691:0.0091528399 692:0.025702801 693:0.0175224 694:0.068630598 695:0.016563 696:0.0149699 697:0.0060847402 698:0.0089884503 699:0.0085346196 700:0.0015952101 701:0.0046222201 703:0.81118703 704:0.099867202 705:0.17935801 706:0.069361001 707:0.052050099 708:0.029473299 709:0.0106103 710:0.0159609 711:0.0097361598 712:0.020673299 713:0.00457008 714:0.00303458 715:0.00901723 716:0.018133 717:0.0137371 718:0.0570358 719:0.17644399 720:0.044846501 721:0.0029726301 725:0.00184159 726:0.0020334499 727:0.0061737699 728:0.017337 729:0.0118192 730:0.0462927 731:0.0111721 732:0.0100975 733:0.0041042701 734:0.0060628802 735:0.0057567698 736:0.001076 737:0.00311777 739:0.54716098 740:0.067362301 741:0.120981 742:0.046785299 743:0.035108801 744:0.0198803 745:0.0071568699 746:0.0107659 747:0.0065672202 748:0.0139445 749:0.00308261 750:0.0020468801 751:0.0060822899 752:0.012231 753:0.0092659304 754:0.038471699 755:0.119015 756:0.030249801 757:0.00078303501 758:0.00056074699 759:0.00076347101 760:0.00088653603 761:0.00190582 762:0.00194887 763:0.0020709301 764:0.0040118601 765:0.00058799802 766:0.028682301 767:0.00242835 768:0.0092022801 769:0.00345042 770:0.0036543801 771:0.00348741 772:0.000133041 773:0.00040014301 775:0.79765201 776:0.0171171 777:0.130689 778:0.039494202 779:0.0023636101 780:0.0025083099 781:0.00370712 782:0.00904937 784:0.026695799 786:0.0079566799 787:0.00264547 788:0.0119051 789:0.0119051 790:0.00166813 791:0.00559576 792:0.0063610999 793:0.00074847799 794:0.00053599902 795:0.00072977698 796:0.00084741099 797:0.00182171 798:0.0018628601 799:0.0019795401 800:0.0038348001 801:0.00056204799 802:0.027416499 803:0.00232118 804:0.0087961601 805:0.0032981499 806:0.0034930999 807:0.0033334999 808:0.00012717 809:0.00038248301 811:0.76244998 812:0.0163617 813:0.124921 814:0.037751202 815:0.0022593001 816:0.0023976199 817:0.0035435101 818:0.0086500002 820:0.0255176 822:0.0076055299 823:0.0025287201 824:0.0113797 825:0.0113797 826:0.00159451 827:0.0053488002 828:0.0060803699 829:0.00314638 830:0.0050070798 831:0.0131883 833:0.0026404699 834:0.0026404699 835:0.00136952 836:0.0041190502 838:0.0256007 840:0.0070906398 841:0.0023575299 842:0.0097232899 843:0.0147862 844:0.00163447 845:0.0052572698 846:0.00167568 847:0.60885698 848:0.0146039 849:0.121927 850:0.0379752 851:0.0056205401 852:0.0056205401 853:0.00148221 854:0.0041146199 856:0.031061901 858:0.017058499 859:0.0068736202 860:0.0066960198 861:0.0074449298 862:0.034425199 863:0.088973202 864:0.0148312 865:0.0044907401 866:0.0071464698 867:0.0188233 869:0.0037686699 870:0.0037686699 871:0.0019546801 872:0.0058789998 874:0.036539201 876:0.0101203 877:0.0033648401 878:0.0138778 879:0.021104001 880:0.0023328301 881:0.00750355 882:0.0023916501 883:0.86900502 884:0.0208437 885:0.174023 886:0.054200899 887:0.0080220401 888:0.0080220401 889:0.00211552 890:0.0058726799 892:0.044333801 894:0.024347199 895:0.0098105203 896:0.0095570404 897:0.0106259 898:0.049134199 899:0.12698901 900:0.0211681 905:0.0052523999 906:0.0052523999 907:0.0016614801 908:0.0053698202 909:0.0075122998 910:0.042287499 911:0.020856 912:0.0350274 913:0.016895801 914:0.0135812 915:0.0124651 916:0.00228984 917:0.00109182 919:0.35697901 920:0.0087843398 921:0.0698516 922:0.0082390904 923:0.040190902 924:0.024990199 925:0.000886589 926:0.00266655 928:0.0053018499 930:0.0114071 931:0.062581301 932:0.102892 933:0.150526 934:0.0503322 935:0.049626801 936:0.072562799 941:0.0108144 942:0.0108144 943:0.0034208901 944:0.0110562 945:0.0154674 946:0.087067597 947:0.0429415 948:0.072119497 949:0.034787498 950:0.027962999 951:0.025665101 952:0.0047146701 953:0.0022479901 955:0.73500198 956:0.0180865 957:0.143821 958:0.0169638 959:0.082750902 960:0.051453602 961:0.00182544 962:0.00549029 964:0.0109162 966:0.023486599 967:0.12885199 968:0.21184801 969:0.30992401 970:0.103631 971:0.102179 972:0.14940301 973:0.0131157 975:0.0022465901 976:0.00074881501 977:0.0150098 978:0.0226305 979:0.0129316 980:0.026201401 981:0.0264952 982:0.050879002 983:0.041133501 984:0.075345203 985:0.062337 986:0.0292992 987:0.025584901 988:0.0066907699 989:0.0078487797 991:0.148983 992:0.0138094 993:0.101068 994:0.016783601 995:0.0014663599 996:0.0014663599 997:0.000344967 998:0.00168524 999:0.00148366 1000:0.0019551599 1001:0.00094807398 1002:0.016717801 1003:0.0571688 1004:0.25750399 1005:0.20727199 1006:0.16768099 1007:0.124035 1008:0.0466417 1009:0.0108121 1011:0.0030567299 1012:0.00101632 1013:0.0078730201 1014:0.0106662 1015:0.0069814599 1016:0.00243941 1017:0.00213142 1018:0.0134702 1019:0.00109909 1020:0.0096073104 1021:0.0043274299 1022:0.0093606096 1023:0.00908879 1024:0.00074974197 1025:0.0022549699 1027:0.71241897 1028:0.0105669 1029:0.035863802 1030:0.0082207797 1031:0.00179416 1032:0.0025504399 1033:0.0051280698 1034:0.0058820802 1036:0.0273844 1038:0.00588209 1039:0.00183022 1040:0.020101599 1041:0.020101599 1042:0.186214 1043:0.50596702 1044:0.0224919 1045:0.22609399 1046:0.0133742 1047:0.086258397 1048:0.023948999 1049:0.00164104 1050:0.00136922 1052:0.00051999203 1053:0.00106363 1054:0.0125402 1055:0.0157844 1056:0.020784499 1057:0.0075264699 1058:0.0089114401 1059:0.0072946502 1060:0.0041829101 1061:0.0136636 1062:0.0180897 1063:0.23434301 1064:0.0076428601 1065:0.27150199 1066:0.067949101 1067:0.027515201 1068:0.023322299 1069:0.0019950001 1070:0.0065691401 1072:0.0155572 1074:0.00770145 1075:0.0071661999 1076:0.0249223 1077:0.0241738 1078:0.000424856 1079:0.00127782 1080:0.0148823 1081:0.32306901 1082:0.0191107 1083:0.123256 1084:0.034221102 1085:0.0023449201 1086:0.0019565099 1088:0.00074302498 1089:0.00151984 1090:0.017918799 1091:0.0225545 1092:0.029699299 1093:0.0107547 1094:0.0127337 1095:0.0104235 1096:0.0059770402 1097:0.019524099 1098:0.0258488 1099:0.334858 1100:0.010921 1101:0.387954 1102:0.097093701 1103:0.0393169 1104:0.033325698 1105:0.0028506899 1106:0.0093867602 1108:0.022229901 1110:0.0110047 1111:0.0102399 1112:0.035611901 1113:0.0345424 1114:0.00060708402 1115:0.0018259 1116:0.0212656 1117:0.69403601 1118:0.015826199 1119:0.26661 1120:0.094336197 1121:0.074380301 1122:0.077353299 1123:0.018720699 1124:0.0130513 1125:0.00140577 1126:0.0311692 1127:0.001482 1128:0.016540401 1129:0.0053732102 1130:0.00985 1131:0.016422801 1132:0.038513198 1133:0.12043 1134:0.0202197 1135:0.00585155 1136:0.0057972199 1137:0.0150249 1138:0.0125896 1139:0.0275496 1140:0.023309899 1141:0.0058012102 1142:0.0041530202 1144:0.032518499 1146:0.0199618 1147:0.00672958 1148:0.026918801 1149:0.0301002 1150:0.00481132 1151:0.0130084 1152:0.0022064301 1153:0.442173 1154:0.0100829 1155:0.16985799 1156:0.060102001 1157:0.047387999 1158:0.0492821 1159:0.011927 1160:0.0083150296 1161:0.00089562201 1162:0.019858001 1163:0.00094418903 1164:0.010538 1165:0.0034232901 1166:0.0062754699 1167:0.010463 1168:0.0245369 1169:0.076726697 1170:0.012882 1171:0.00372805 1172:0.00369343 1173:0.0095723895 1174:0.0080209104 1175:0.017551901 1176:0.0148508 1177:0.0036959699 1178:0.00264591 1180:0.020717699 1182:0.0127177 1183:0.0042874399 1184:0.0171501 1185:0.0191769 1186:0.00306531 1187:0.0082876701 1188:0.00140573 1189:0.81094301 1190:0.099837102 1191:0.179304 1192:0.069340102 1193:0.0520344 1194:0.029464399 1195:0.0106071 1196:0.0159561 1197:0.0097332196 1198:0.0206671 1199:0.00456871 1200:0.0030336599 1201:0.0090145096 1202:0.018127499 1203:0.013733 1204:0.0570186 1205:0.17639101 1206:0.044833001 1207:0.00154738 1209:0.00164228 1210:0.0099115903 1211:0.0440046 1212:0.086892702 1213:0.038342599 1214:0.0112946 1216:0.018912399 1218:0.0032845701 1219:0.00109207 1220:0.00309475 1221:0.00309475 1222:0.0016381 1223:0.0049268599 1225:0.54676503 1226:0.0673135 1227:0.120893 1228:0.046751399 1229:0.035083301 1230:0.0198659 1231:0.0071516801 1232:0.0107581 1233:0.0065624602 1234:0.0139344 1235:0.0030803699 1236:0.0020454 1237:0.00607788 1238:0.0122222 1239:0.0092592202 1240:0.0384438 1241:0.118928 1242:0.0302279 1243:0.00104329 1245:0.00110728 1246:0.0066827298 1247:0.0296694 1248:0.058585901 1249:0.025851799 1250:0.00761519 1252:0.0127514 1254:0.0022145701 1255:0.00073630898 1256:0.00208659 1257:0.00208659 1258:0.00110446 1259:0.00332185 1261:0.79707402 1262:0.0171047 1263:0.130594 1264:0.039465498 1265:0.0023618999 1266:0.0025065001 1267:0.0037044301 1268:0.0090428097 1270:0.0266764 1272:0.0079509104 1273:0.0026435601 1274:0.0118964 1275:0.0118964 1276:0.00166692 1277:0.0055916999 1278:0.0063564898 1279:0.00104329 1285:0.00073631102 1286:0.0022145701 1288:0.0083463397 1290:0.0044291401 1291:0.0014726199 1292:0.0026082301 1293:0.0026082301 1297:0.76297998 1298:0.016372999 1299:0.125008 1300:0.037777402 1301:0.0022608701 1302:0.00239928 1303:0.00354597 1304:0.00865601 1306:0.0255353 1308:0.00761081 1309:0.00253048 1310:0.0113876 1311:0.0113876 1312:0.0015956199 1313:0.0053525199 1314:0.0060845902 1315:0.00099866604 1321:0.00070481497 1322:0.0021198399 1324:0.0079893302 1326:0.0042396798 1327:0.0014096299 1328:0.00249666 1329:0.00249666 1333:0.60927999 1334:0.014614 1335:0.122011 1336:0.0380015 1337:0.00562444 1338:0.00562444 1339:0.00148324 1340:0.00411748 1342:0.0310835 1344:0.0170704 1345:0.00687839 1346:0.0067006699 1347:0.0074501 1348:0.0344491 1349:0.089035101 1350:0.0148415 1351:0.00578395 1354:0.0017098 1355:0.0066060401 1356:0.0061445599 1357:0.00066565699 1358:0.0020020599 1360:0.017143801 1362:0.0090964297 1363:0.0030261299 1364:0.0099589201 1365:0.0099589201 1369:0.85704303 1370:0.0205568 1371:0.171627 1372:0.053454801 1373:0.0079116104 1374:0.0079116104 1375:0.0020864001 1376:0.0057918401 1378:0.043723501 1380:0.024011999 1381:0.0096754702 1382:0.0094254799 1383:0.0104797 1384:0.048457801 1385:0.125241 1386:0.0208767 1387:0.00813598 1390:0.00240509 1391:0.0092923604 1392:0.0086432304 1393:0.00093634397 1394:0.0028162 1396:0.024115199 1398:0.0127955 1399:0.0042567002 1400:0.0140087 1401:0.0140087 1405:0.352065 1406:0.0086634103 1407:0.068890102 1408:0.0081256703 1409:0.039637599 1410:0.0246462 1411:0.000874385 1412:0.00262984 1414:0.0052288701 1416:0.0112501 1417:0.061719801 1418:0.101475 1419:0.148454 1420:0.0496393 1421:0.048943698 1422:0.0715639 1432:0.00378507 1434:0.0121793 1435:0.0563532 1436:0.124647 1437:0.11314 1438:0.0308553 1439:0.00072214601 1441:0.670753 1442:0.0165055 1443:0.131249 1444:0.015481 1445:0.075517401 1446:0.046955898 1447:0.00166587 1448:0.0050103702 1450:0.0099620204 1452:0.021433599 1453:0.117588 1454:0.19333 1455:0.28283301 1456:0.094572604 1457:0.093247302 1458:0.136343 1468:0.0072113001 1470:0.023204001 1471:0.107364 1472:0.237477 1473:0.215554 1474:0.058785401 1475:0.00137583 1477:0.13596 1478:0.0126022 1479:0.0922333 1480:0.0153165 1481:0.00133819 1482:0.00133819 1483:0.000314812 1484:0.00153792 1485:0.00135397 1486:0.00178425 1487:0.00086520001 1488:0.0152565 1489:0.052171499 1490:0.23499499 1491:0.189154 1492:0.153024 1493:0.113193 1494:0.042564601 1506:0.0082167899 1507:0.072058201 1508:0.204578 1509:0.17638201 1510:0.019482199 #
-0.049269229956040001827677343726464 325:0.054070301 327:0.0029453901 328:0.00097924296 329:0.0132043 330:0.0132043 331:0.00736043 332:0.022137601 334:0.0841491 336:0.0286151 337:0.0087977303 338:0.016426999 339:0.016426999 340:0.00840287 341:0.025273001 343:0.89158398 344:0.046069499 345:0.0108075 346:0.00346156 347:0.0087730102 348:0.0087730102 352:0.037777599 354:0.021757601 355:0.0072340602 356:0.0304817 357:0.036813401 358:0.128417 359:0.40994799 360:0.028901201 361:0.0530717 363:0.0028909999 364:0.00096115901 365:0.0129604 366:0.0129604 367:0.0072245002 368:0.021728801 370:0.082595102 372:0.028086601 373:0.0086352602 374:0.0161236 375:0.0161236 376:0.0082476903 377:0.0248062 379:0.87511802 380:0.045218699 381:0.0106079 382:0.0033976301 383:0.0086109899 384:0.0086109899 388:0.037080001 390:0.0213558 391:0.0071004699 392:0.029918799 393:0.036133502 394:0.126046 395:0.40237799 396:0.0283674 397:0.024514901 398:0.00395888 399:0.00193543 400:0.00347272 401:0.028890301 402:0.0287953 403:0.021631701 404:0.0437099 405:0.030530499 406:0.067405902 407:0.0091206403 408:0.020070899 409:0.0280909 410:0.097671598 411:0.099737301 412:0.0245804 413:0.0028909701 415:0.0550927 417:0.0057184598 418:0.020659201 419:0.0097975396 420:0.0082595404 424:0.0203852 426:0.00669525 427:0.00175653 428:0.0182325 429:0.0182325 430:0.0031316499 431:0.0137193 432:0.00913879 433:0.128152 434:0.0206951 435:0.0101174 436:0.0181536 437:0.151024 438:0.150528 439:0.11308 440:0.22849301 441:0.15959799 442:0.35236499 443:0.047678199 444:0.104921 445:0.146845 446:0.51057798 447:0.52137703 448:0.12849399 449:0.0151125 451:0.28799701 453:0.0298933 454:0.107996 455:0.051216599 456:0.043176699 460:0.106564 462:0.0349994 463:0.0091822399 464:0.095310196 465:0.095310196 466:0.016370701 467:0.071717598 468:0.047773 829:0.89230198 830:0.046106599 831:0.0108162 832:0.00346435 833:0.0087800799 834:0.0087800799 838:0.037808102 840:0.0217751 841:0.0072398898 842:0.0305063 843:0.036843099 844:0.128521 845:0.41027901 846:0.028924501 847:0.046767302 849:0.0062758001 850:0.0020866101 851:0.00591311 852:0.00591311 856:0.053218 858:0.037369501 859:0.0124248 860:0.046767302 861:0.046767302 862:0.00567492 863:0.0192244 865:0.77272302 866:0.039927799 867:0.0093666799 868:0.0030000899 869:0.0076034502 870:0.0076034502 874:0.032741301 876:0.018857 877:0.0062696598 878:0.026418099 879:0.0319057 880:0.111298 881:0.355297 882:0.0250482 883:0.0404999 885:0.0054347599 886:0.00180698 887:0.0051206802 888:0.0051206802 892:0.0460862 894:0.0323615 895:0.0107597 896:0.0404999 897:0.0404999 898:0.0049144099 899:0.016648101 901:0.048646498 903:0.00504936 904:0.018242 905:0.0086511597 906:0.00729312 910:0.017999999 912:0.0059118601 913:0.0015510001 914:0.016099099 915:0.016099099 916:0.0027652299 917:0.012114 918:0.0080694901 919:0.0683534 928:0.0460862 930:0.0048583499 931:0.0420908 932:0.32564801 933:0.34911701 934:0.096884802 935:0.0125595 936:0.0069035101 937:0.097280398 939:0.0100974 940:0.036479201 941:0.017300099 942:0.0145843 946:0.035995301 948:0.0118222 949:0.0031016001 950:0.0321941 951:0.0321941 952:0.0055297399 953:0.0242249 954:0.0161369 955:0.13668901 964:0.092160396 966:0.00971545 967:0.084170803 968:0.65121102 969:0.69814402 970:0.193744 971:0.025115799 972:0.0138052 1333:0.43686801 1335:0.0586241 1336:0.0194917 1337:0.055236202 1338:0.055236202 1342:0.49712601 1344:0.34908 1345:0.116064 1346:0.43686801 1347:0.43686801 1348:0.053011101 1349:0.179581 1369:0.080247901 1371:0.0107686 1372:0.00358041 1373:0.0101463 1374:0.0101463 1378:0.091316603 1380:0.0641222 1381:0.0213196 1382:0.080247901 1383:0.080247901 1384:0.0097375801 1385:0.032987099 1405:0.135438 1414:0.0913167 1416:0.0096265003 1417:0.083400197 1418:0.64524901 1419:0.69175297 1420:0.191971 1421:0.0248859 1422:0.0136788 1441:0.13778199 1450:0.0928974 1452:0.00979314 1453:0.084843896 1454:0.65641898 1455:0.70372701 1456:0.19529399 1457:0.0253166 1458:0.0139156 #
-0.036434796894744610196159584347697 23:0.0123744 24:0.0123744 28:0.065183699 32:0.0163831 33:0.0163831 37:0.0250974 41:0.058560699 42:0.058560699 43:0.00295211 44:0.0088789295 46:0.083658099 48:0.0088789398 49:0.00295211 50:0.041829102 51:0.041829102 55:0.065183699 56:0.0127827 57:0.023187499 58:0.0063409801 59:0.045605302 60:0.045605302 64:0.040783402 66:0.66880298 67:0.26141301 68:0.446845 69:0.49748501 70:0.021670301 71:0.036520001 72:0.036514901 73:0.0203322 77:0.0474419 78:0.0474419 79:0.0023916001 80:0.00719311 82:0.067774102 84:0.00719311 85:0.0023916001 86:0.033887099 87:0.033887099 91:0.052807398 92:0.0103557 93:0.018785 94:0.00513703 95:0.0369463 96:0.0369463 100:0.033039901 102:0.54181898 103:0.211779 104:0.362003 105:0.40302899 106:0.017555799 107:0.029586 108:0.029581901 109:0.0067774099 113:0.0066362298 114:0.0066362298 115:0.023232101 116:0.069087699 118:0.18129601 120:0.083719902 121:0.0278356 122:0.0199087 123:0.0199087 131:0.0070598 132:0.00965151 133:0.019079801 134:0.023146899 135:0.00222644 136:0.34640101 137:0.00222644 138:0.0817504 139:0.0270136 140:0.29298201 141:0.29298201 145:0.010714 149:0.0104908 150:0.0104908 151:0.0367263 152:0.109217 154:0.28660101 156:0.132348 157:0.044003699 158:0.0314725 159:0.0314725 167:0.0111604 168:0.0152575 169:0.030162301 170:0.036591601 171:0.0035196601 172:0.547607 173:0.0035196601 174:0.129235 175:0.042704299 176:0.46315899 177:0.46315899 181:0.030803001 185:0.041070599 186:0.041070599 187:0.0036232299 188:0.0108974 190:0.0919623 192:0.0652266 193:0.0216868 194:0.122765 195:0.122765 196:0.0036232299 197:0.0108974 203:0.026412999 204:0.0305101 205:0.027820701 206:0.0297607 207:0.0076550599 208:0.23511399 209:0.030337499 210:0.146028 211:0.0435468 212:0.0322165 213:0.0322165 217:0.0491977 221:0.065596901 222:0.065596901 223:0.0057869302 224:0.0174051 226:0.14688 228:0.104178 229:0.0346376 230:0.196077 231:0.196077 232:0.00578692 233:0.0174051 239:0.042186201 240:0.048730001 241:0.044434499 242:0.047533002 243:0.0122265 244:0.37551701 245:0.048454199 246:0.23323201 247:0.069551803 248:0.0514553 249:0.0514553 253:0.032560699 254:0.049438499 255:0.092378996 256:0.0229799 257:0.072845601 258:0.087272301 259:0.078998297 260:0.0926902 261:0.093526296 262:0.58590102 263:0.0964619 264:0.18300501 265:0.046008199 266:0.144859 267:0.144859 269:0.0116317 270:0.0247193 271:0.0240045 273:0.0080719097 274:0.0026837899 275:0.00784308 276:0.00784308 277:0.0068771802 278:0.020684199 280:0.37979501 281:0.023202101 282:0.165466 283:0.051243301 284:0.050861299 285:0.050861299 286:0.00410954 287:0.0123601 289:0.0348645 290:0.052936599 291:0.098915398 292:0.0246059 293:0.0779998 294:0.093447298 295:0.084587902 296:0.099248603 297:0.100144 298:0.62735701 299:0.103287 300:0.19595399 301:0.0492635 302:0.155109 303:0.155109 305:0.0124547 306:0.026468299 307:0.025703 309:0.0086430404 310:0.0028736801 311:0.0083980197 312:0.0083980197 313:0.0073637799 314:0.0221477 316:0.40666699 317:0.024843801 318:0.177173 319:0.0548691 320:0.05446 321:0.05446 322:0.0044003101 323:0.0132346 325:0.118081 327:0.0178262 328:0.0059269601 329:0.0580226 330:0.0580226 331:0.0059269601 332:0.0178262 334:0.117572 336:0.071304999 337:0.0237078 338:0.17763101 339:0.17763101 347:0.0040717502 348:0.0040717502 349:0.0055677299 350:0.0197354 351:0.0061151702 352:0.305383 353:0.085612297 354:0.18230399 355:0.046697099 356:0.025448499 357:0.025448499 361:0.157001 363:0.0237018 364:0.0078805098 365:0.077147096 366:0.077147096 367:0.0078805098 368:0.0237018 370:0.156324 372:0.094807401 373:0.031521998 374:0.236178 375:0.236178 383:0.0054138098 384:0.0054138098 385:0.0074028801 386:0.0262403 387:0.0081307497 388:0.40603799 389:0.11383 390:0.242392 391:0.062088698 392:0.033836398 393:0.033836398 397:0.33904201 399:0.049199302 400:0.016357999 401:0.045340899 402:0.045340899 403:0.0075222701 404:0.0226244 406:0.027745901 408:0.067873202 409:0.022566799 410:0.0605672 411:0.0605672 412:0.023641501 413:0.071105503 419:0.0081207799 420:0.0081207799 421:0.018984901 422:0.057099901 424:0.60973501 426:0.214753 427:0.081429899 428:0.040989801 429:0.038911901 433:0.35636699 435:0.0517134 436:0.0171939 437:0.047657799 438:0.047657799 439:0.0079066604 440:0.023780501 442:0.0291637 444:0.0713415 445:0.023719899 446:0.063662201 447:0.063662201 448:0.024849599 449:0.074739002 455:0.0085357502 456:0.0085357502 457:0.019955 458:0.060017701 460:0.64089203 462:0.22572701 463:0.085590899 464:0.043084402 465:0.040900301 473:0.078421697 474:0.078421697 475:0.02372 476:0.071341403 478:0.26887399 480:0.023780501 481:0.0079066502 482:0.0896248 483:0.0896248 484:0.0079066502 485:0.023780501 491:0.0026674301 492:0.0026674301 493:0.0225906 494:0.075778499 495:0.0160241 496:0.49151501 497:0.033116601 498:0.097346298 499:0.0269832 500:0.0136928 501:0.0136928 509:0.00176317 510:0.00176317 514:0.0092876796 518:0.00233434 519:0.00233434 523:0.018327 525:0.00363721 526:0.00120932 527:0.0092380196 528:0.0092380196 529:0.00213821 530:0.0064309901 532:0.102371 533:0.00085354899 534:0.17469899 535:0.056505799 536:0.104817 537:0.115061 538:0.0020155299 539:0.0060620098 541:0.0092876796 542:0.0018213399 543:0.0033038701 544:0.00090349198 545:0.0064980602 546:0.0064980602 550:0.00581101 552:0.0952942 553:0.0372473 554:0.063668497 555:0.070883997 556:0.0030876801 557:0.00520354 558:0.0052028098 559:0.017184701 561:0.0140041 562:0.00711087 563:0.0110824 564:0.0152677 565:0.00366107 566:0.00205077 567:0.00401035 568:0.65718198 569:0.0130897 570:0.57177597 571:0.167386 572:0.230756 573:0.26425499 574:0.0036825801 575:0.00303337 577:0.0095768599 578:0.00187805 579:0.00340674 580:0.00093162298 581:0.0067003798 582:0.0067003798 586:0.0059919399 588:0.098261297 589:0.038407002 590:0.065650903 591:0.073091097 592:0.0031838201 593:0.0053655598 594:0.0053647999 595:0.017719699 597:0.0144401 598:0.00733227 599:0.0114275 600:0.015743099 601:0.0037750599 602:0.0021146201 603:0.0041352198 604:0.67764401 605:0.0134972 606:0.58957899 607:0.172598 608:0.237941 609:0.27248299 610:0.0037972401 611:0.0031278201 617:0.00128032 618:0.00175034 619:0.00346021 620:0.0041977898 621:0.00040377499 622:0.062821403 623:0.00040377499 624:0.0148258 625:0.0048990301 626:0.053133499 627:0.053133499 631:0.00027313299 635:0.0012291101 636:0.0012291101 637:0.000192768 638:0.00057977898 640:0.015841899 642:0.0098485397 643:0.00332111 644:0.0036873301 645:0.0036873301 646:9.6382399e-05 647:0.000289886 653:0.0119446 654:0.016329501 655:0.032281499 656:0.039162599 657:0.00376695 658:0.58608198 659:0.00376695 660:0.13831501 661:0.0457047 662:0.4957 663:0.4957 667:0.00254815 671:0.0114668 672:0.0114668 673:0.0017984 674:0.0054089502 676:0.14779399 678:0.091880299 679:0.030983699 680:0.034400299 681:0.034400299 682:0.00089918397 683:0.0027044399 689:0.028268799 690:0.032653801 691:0.0297754 692:0.031851701 693:0.0081928996 694:0.25163299 695:0.032469001 696:0.156288 697:0.046606399 698:0.034480002 699:0.034480002 703:0.0050963699 705:0.00270448 706:0.00089919899 707:0.0050963699 708:0.0050963699 709:0.0062943799 710:0.018931299 712:0.086638004 714:0.024340199 715:0.0080927499 716:0.022933699 717:0.022933699 718:0.0017983899 719:0.0054089599 725:0.064579703 726:0.074597001 727:0.068021402 728:0.072764799 729:0.0187166 730:0.57485098 731:0.074174903 732:0.35703701 733:0.106472 734:0.078768998 735:0.078768998 739:0.0116426 741:0.0061783399 742:0.0020542101 743:0.0116426 744:0.0116426 745:0.0143794 746:0.0432483 748:0.197923 750:0.055604901 751:0.0184878 752:0.0523916 753:0.0523916 754:0.0041084099 755:0.0123567 757:0.036746699 759:0.0123567 760:0.0041084099 761:0.0120064 762:0.0120064 763:0.0105278 764:0.031663802 766:0.58139902 767:0.0355184 768:0.253299 769:0.0784446 770:0.0778597 771:0.0778597 772:0.0062909899 773:0.0189211 775:0.029106401 781:0.0041084099 782:0.0123567 784:0.092413001 786:0.054832801 787:0.018231099 788:0.043113999 789:0.043113999 790:0.0060342299 791:0.018148899 793:0.043196801 795:0.0145256 796:0.0048295599 797:0.0141138 798:0.0141138 799:0.0123757 800:0.0372217 802:0.683451 803:0.041752901 804:0.29776001 805:0.092213802 806:0.0915263 807:0.0915263 808:0.0073952298 809:0.0222423 811:0.034215499 817:0.0048295599 818:0.0145256 820:0.108634 822:0.064457603 823:0.0214311 824:0.050681699 825:0.050681699 826:0.00709341 827:0.0213346 833:0.0068430402 834:0.0068430402 835:0.0093572196 836:0.033167601 837:0.0102772 838:0.51323098 839:0.14388099 840:0.30638301 841:0.078479901 842:0.042769101 843:0.042769101 869:0.0065891701 870:0.0065891701 871:0.00901007 872:0.0319371 873:0.0098959599 874:0.49419001 875:0.13854299 876:0.29501599 877:0.075568303 878:0.041182399 879:0.041182399 905:0.0098838201 906:0.0098838201 907:0.023106599 908:0.069496498 910:0.74211001 912:0.26137599 913:0.099108502 914:0.049888801 915:0.047359802 941:0.0099462699 942:0.0099462699 943:0.0232525 944:0.069935597 946:0.74679899 948:0.263028 949:0.099734701 950:0.050204001 951:0.047659099 977:0.0031082199 978:0.0031082199 979:0.0263236 980:0.088300698 981:0.018672099 982:0.57273698 983:0.038589101 984:0.113433 985:0.031442098 986:0.0159555 987:0.0159555 1009:0.017446 1011:0.00346236 1012:0.00115118 1013:0.0087939296 1014:0.0087939296 1015:0.0020354199 1016:0.0061218399 1018:0.097450197 1019:0.00081251701 1020:0.166301 1021:0.0537895 1022:0.099778198 1023:0.10953 1024:0.00191863 1025:0.0057705999 1027:0.0021748401 1031:0.00341986 1032:0.0042876801 1033:0.00586606 1034:0.0057538599 1036:0.016201001 1038:0.175198 1039:0.043993201 1040:0.206082 1041:0.19001 1045:0.016358601 1047:0.0133309 1048:0.0067690299 1049:0.0105497 1050:0.0145337 1051:0.0034850801 1052:0.0019521801 1053:0.0038175699 1054:0.62559003 1055:0.0124604 1056:0.54429001 1057:0.159339 1058:0.21966401 1059:0.251551 1060:0.0035055501 1061:0.00288755 1063:0.000535828 1067:0.00038611199 1068:0.00038611199 1072:0.0120877 1073:0.00083440199 1074:0.0111158 1075:0.0035706901 1076:0.0044915201 1077:0.0045943498 1078:0.00095226598 1079:0.00137156 1081:0.0179956 1083:0.0146649 1084:0.0074464199 1085:0.0116054 1086:0.0159881 1087:0.0038338299 1088:0.00214754 1089:0.0041995901 1090:0.68819398 1091:0.0137073 1092:0.59875798 1093:0.175285 1094:0.24164601 1095:0.27672401 1096:0.00385635 1097:0.0031765101 1099:0.00058944902 1103:0.00042475099 1104:0.00042475099 1108:0.0132973 1109:0.00091790198 1110:0.0122282 1111:0.0039280099 1112:0.0049409899 1113:0.0050541102 1114:0.00104756 1115:0.00150881 1117:0.000277385 1121:0.00124824 1122:0.00124824 1123:0.000195769 1124:0.00058880501 1126:0.016088501 1128:0.0100019 1129:0.0033728101 1130:0.00374473 1131:0.00374473 1132:9.7882898e-05 1133:0.00029439799 1135:0.0047156001 1139:0.000416083 1140:0.000416083 1141:0.000195769 1142:0.00058880501 1146:0.000294403 1147:9.7884396e-05 1148:0.0059638298 1149:0.00617676 1150:0.0031810401 1151:0.00668051 1152:0.000416594 1153:0.0106759 1157:0.048041798 1158:0.048041798 1159:0.0075346702 1160:0.022661701 1162:0.619205 1164:0.384947 1165:0.129811 1166:0.144125 1167:0.144125 1168:0.0037672699 1169:0.0113307 1171:0.181492 1175:0.016014 1176:0.016014 1177:0.0075346702 1178:0.022661701 1182:0.0113308 1183:0.00376733 1184:0.229533 1185:0.237728 1186:0.12243 1187:0.25711599 1188:0.0160337 1189:0.021352001 1191:0.0113308 1192:0.00376733 1193:0.021352001 1194:0.021352001 1195:0.0263713 1196:0.079315603 1198:0.36298299 1200:0.101977 1201:0.0339058 1202:0.096084103 1203:0.096084103 1204:0.0075346502 1205:0.022661701 1211:0.026690001 1212:0.026690001 1213:0.011302 1214:0.033992499 1216:0.064056098 1218:0.0113308 1219:0.00376733 1220:0.032028001 1221:0.032028001 1225:0.0409513 1227:0.0217315 1228:0.0072254199 1229:0.0409513 1230:0.0409513 1231:0.050577801 1232:0.15211999 1234:0.69616997 1236:0.195583 1237:0.065028399 1238:0.18428101 1239:0.18428101 1240:0.0144508 1241:0.0434631 1247:0.051189099 1248:0.051189099 1249:0.0216762 1250:0.065194599 1252:0.122854 1254:0.0217315 1255:0.0072253998 1256:0.061427001 1257:0.061427001 1261:0.102378 1267:0.0144508 1268:0.0434631 1270:0.32505101 1272:0.19286799 1273:0.064125501 1274:0.151648 1275:0.151648 1276:0.0212247 1277:0.0638365 1283:0.051189099 1284:0.051189099 1285:0.0144508 1286:0.088564299 1287:0.092253603 1288:0.30713499 1290:0.065194599 1291:0.0216762 1292:0.061427001 1293:0.061427001 1297:0.155449 1303:0.0219418 1304:0.065993302 1306:0.49355 1308:0.29284599 1309:0.097366698 1310:0.230259 1311:0.230259 1312:0.032226998 1313:0.096927904 1319:0.077724397 1320:0.077724397 1321:0.0219418 1322:0.13447399 1323:0.140076 1324:0.466346 1326:0.098990001 1327:0.032912601 1328:0.093269303 1329:0.093269303 1355:0.108814 1356:0.108814 1357:0.0109709 1358:0.032996699 1360:0.34198701 1362:0.13198701 1363:0.043883499 1364:0.170994 1365:0.170994 1391:0.194985 1392:0.194985 1393:0.019658901 1394:0.059126999 1396:0.61281002 1398:0.236508 1399:0.078635298 1400:0.30640501 1401:0.30640501 1425:0.110864 1426:0.0368605 1427:0.052228399 1428:0.052228399 1432:0.36559901 1434:0.221727 1435:0.073720902 1436:0.208914 1437:0.208914 1461:0.204236 1462:0.067905501 1463:0.0962165 1464:0.0962165 1468:0.67351598 1470:0.408472 1471:0.135811 1472:0.384866 1473:0.384866 #
0.029890655788463643682817405533569 1:0.00319374 2:0.0035612001 3:0.0244442 4:0.0361122 5:0.230674 6:0.24262799 7:0.137725 8:0.101239 9:0.0094495798 10:0.0041163699 14:0.00141943 15:0.00141943 16:0.001127 17:0.00338963 19:0.63918197 20:0.037366301 21:0.33527401 22:0.141975 23:0.0370504 24:0.040834099 25:0.016185001 26:0.0229987 27:0.053506799 28:0.23624399 29:0.024716301 30:0.17527699 31:0.057602599 32:0.089229599 33:0.0847404 34:0.10195 35:0.37124801 36:0.0091305198 41:0.019694701 42:0.019694701 43:0.0060199401 44:0.0207463 45:0.0074356399 46:0.073744804 47:0.032495901 48:0.0200489 49:0.0071504 50:0.0065337801 51:0.0059616198 52:0.000275486 53:0.00082856801 55:0.186931 56:0.0134388 57:0.0023350699 58:0.00077637698 59:0.00223561 60:0.00223561 61:0.00289289 62:0.0101357 63:0.0055701099 64:0.035736699 65:0.011827 66:0.0209652 67:0.026033301 68:0.0535153 69:0.043262001 70:0.040077999 71:0.031945799 72:0.0061322502 77:0.074733898 78:0.074733898 79:0.0228434 80:0.078724399 81:0.0282155 82:0.279834 83:0.12331 84:0.076077998 85:0.0271331 86:0.0247932 87:0.022622099 88:0.00104537 89:0.0031441101 91:0.70933402 92:0.050995201 93:0.0088607296 94:0.0029460599 95:0.0084832897 96:0.0084832897 97:0.0109774 98:0.038461301 99:0.0211365 100:0.135608 101:0.044879001 102:0.079555102 103:0.098786697 104:0.20307 105:0.16416299 106:0.152081 107:0.121222 108:0.023269599 109:0.037755799 110:0.0040446199 111:0.0019773999 113:0.0026931099 114:0.0026931099 118:0.035511602 119:0.147238 120:0.124854 121:0.059891202 122:0.078428 123:0.0783232 124:0.037635799 125:0.0434561 126:0.046326399 127:0.12591401 128:0.034931999 129:0.016376 130:0.0023576301 131:0.0094259102 132:0.0094259102 133:0.0137095 134:0.0484014 135:0.036940798 136:0.227496 137:0.14495499 138:0.172886 139:0.071465902 140:0.065578699 141:0.066100702 142:0.142767 143:0.096410498 144:0.0148536 145:0.032620199 146:0.0034944699 147:0.00170844 149:0.00232679 150:0.00232679 154:0.030681301 155:0.12721001 156:0.107871 157:0.051744699 158:0.067760102 159:0.0676696 160:0.032516502 161:0.0375451 162:0.040025 163:0.108787 164:0.030180501 165:0.0141485 166:0.0020369401 167:0.0081437798 168:0.0081437798 169:0.0118448 170:0.041817799 171:0.031916 172:0.19655199 173:0.125238 174:0.14937 175:0.061744999 176:0.0566586 177:0.057109602 178:0.123348 179:0.083296597 180:0.0128332 185:0.0090744998 186:0.0090744998 187:0.0047622402 188:0.015631501 189:0.047469798 190:0.107626 191:0.077782199 192:0.050331101 193:0.0153526 194:0.0611948 195:0.0611948 199:0.39473799 200:0.0046664099 201:0.0328601 202:0.026697 203:0.051583201 204:0.091318399 205:0.034310501 206:0.372958 207:0.045813199 208:0.37666601 209:0.14112499 210:0.105032 211:0.114523 212:0.072499201 213:0.086402498 214:0.31973401 215:0.41782299 216:0.109368 221:0.0078944704 222:0.0078944704 223:0.0041429698 224:0.0135988 225:0.041296899 226:0.093630403 227:0.067667499 228:0.043786101 229:0.0133562 230:0.053237099 231:0.053237099 235:0.34340701 236:0.0040595899 237:0.028587 238:0.023225401 239:0.044875398 240:0.079443499 241:0.029848799 242:0.32445899 243:0.0398557 244:0.32768399 245:0.122774 246:0.091374204 247:0.099630304 248:0.063071497 249:0.075166903 250:0.278157 251:0.36348999 252:0.095146202 253:0.034007002 257:0.066799298 258:0.066799298 259:0.0115717 260:0.096053399 261:0.039571401 262:0.25352401 263:0.0496943 264:0.066359699 265:0.062173098 266:0.134966 267:0.129879 268:0.032930002 269:0.035233401 271:0.042508502 273:0.149038 274:0.0446935 275:0.096329801 276:0.169539 277:0.010012 278:0.22459701 279:0.116017 280:0.32285401 281:0.077863902 282:0.0150883 283:0.0040172902 284:0.015476 285:0.0147768 286:0.00321434 287:0.0096676396 289:0.024792699 293:0.048699901 294:0.048699901 295:0.0084363297 296:0.070027597 297:0.028849499 298:0.18483099 299:0.036229599 300:0.048379499 301:0.045327201 302:0.0983968 303:0.094688401 304:0.024007499 305:0.025686899 307:0.030990699 309:0.108656 310:0.032583799 311:0.070229098 312:0.123602 313:0.0072992598 314:0.16374201 315:0.084582202 316:0.235376 317:0.056766499 318:0.0110001 319:0.0029287999 320:0.0112827 321:0.010773 322:0.0023434099 323:0.0070481799 325:0.162471 326:0.059068501 327:0.22355101 328:0.046875499 329:0.111715 330:0.117662 331:0.055322699 332:0.085553303 333:0.0113033 334:0.27345699 335:0.0113033 336:0.063037597 337:0.031642199 338:0.229523 339:0.134308 340:0.042000301 341:0.066578597 342:0.034147602 343:0.681952 344:0.0142419 345:0.0282622 346:0.0071999999 347:0.0148313 348:0.0151863 349:0.0082848798 350:0.0629327 351:0.160963 352:0.161487 353:0.0210038 356:0.0261946 357:0.0261946 358:0.0027735501 359:0.0122199 360:0.0238258 361:0.053768702 362:0.019548301 363:0.073982701 364:0.0155131 365:0.0369712 366:0.038939301 367:0.0183086 368:0.0283133 369:0.00374074 370:0.090498701 371:0.00374074 372:0.020861801 373:0.0104718 374:0.0759589 375:0.0444481 376:0.0138997 377:0.022033701 378:0.0113009 379:0.225687 380:0.0047132401 381:0.0093531599 382:0.00238279 383:0.00490832 384:0.0050257901 385:0.0027418199 386:0.0208271 387:0.053269502 388:0.053442899 389:0.0069510601 392:0.00866892 393:0.00866892 394:0.00091788702 395:0.0040441002 396:0.0078849597 397:0.0024907701 401:0.0061048698 402:0.0061048698 403:0.0043119602 404:0.0202346 405:0.022152999 406:0.061029799 407:0.00342894 408:0.027392499 409:0.0275236 410:0.064477198 411:0.051678602 412:0.00639778 413:0.0052870899 415:0.88033998 416:0.049794398 417:0.233567 418:0.066702098 419:0.0149401 420:0.0163243 421:0.0093772104 422:0.0150815 423:0.0269306 424:0.076728404 425:0.0129546 426:0.00878256 427:0.0022404499 428:0.0171669 429:0.017284401 430:0.075563103 431:0.218077 432:0.0318656 433:0.00211038 437:0.0051725302 438:0.0051725302 439:0.0036534399 440:0.0171443 441:0.018769801 442:0.051709201 443:0.0029052701 444:0.023209101 445:0.0233202 446:0.054630201 447:0.043786202 448:0.0054207002 449:0.0044796499 451:0.74589401 452:0.042189699 453:0.197896 454:0.056515299 455:0.0126585 456:0.0138312 457:0.0079451101 458:0.0127782 459:0.022817699 460:0.065010399 461:0.0109761 462:0.0074412799 463:0.00189829 464:0.0145452 465:0.0146447 466:0.064023003 467:0.184772 468:0.026999099 469:0.002938 478:0.00326904 481:0.0630536 482:0.37133101 483:0.29847401 484:0.033506401 487:0.0177829 488:0.013404 489:0.0042528398 490:0.0027137899 491:0.0032830399 492:0.0055480502 493:0.0127662 494:0.064380199 495:0.0069438401 496:0.108721 497:0.028441301 498:0.0117033 499:0.058111802 500:0.26652399 501:0.14464401 502:0.0068976702 503:0.00136147 504:0.0036154699 505:0.15544 506:0.0090869498 507:0.081533797 508:0.034526199 509:0.0090101399 510:0.0099302698 511:0.0039359601 512:0.0055929702 513:0.0130121 514:0.0574512 515:0.0060106399 516:0.042624999 517:0.0140081 518:0.021699401 519:0.020607701 520:0.024792699 521:0.090282202 522:0.0022204099 523:0.050034702 524:0.0167943 525:0.133885 526:0.057614099 527:0.0513811 528:0.0556341 529:0.0234877 530:0.0207667 531:0.0059304899 532:0.0077734301 536:0.00080255698 537:0.00092356402 538:0.00138262 539:0.0028687899 540:0.00147745 541:0.045458999 542:0.0032681201 543:0.000567857 544:0.000188804 545:0.00054366799 546:0.00054366799 547:0.00070351001 548:0.00246487 549:0.00135457 550:0.0086906701 551:0.00287616 552:0.0050984402 553:0.0063309302 554:0.0130142 555:0.0105207 556:0.0097463997 557:0.0077687702 558:0.00149128 559:0.66468 560:0.0060000299 561:0.057739899 562:0.0108754 563:0.0051173898 564:0.0059366799 565:0.0045569502 566:0.0059726601 567:0.0042513502 568:0.026032399 569:0.0093134604 570:0.0165282 571:0.0140187 572:0.208762 573:0.218668 574:0.18909501 575:0.58623099 576:0.038647301 577:0.032972701 578:0.00237046 579:0.000411883 580:0.000136945 581:0.00039433801 582:0.00039433801 583:0.000510276 584:0.00178784 585:0.00098250899 586:0.0063035898 587:0.00208616 588:0.00369805 589:0.0045920098 590:0.0094395401 591:0.0076309699 592:0.00706934 593:0.00563491 594:0.0010816701 595:0.48211101 596:0.0043519898 597:0.041880399 598:0.0078882501 599:0.0037117901 600:0.00430605 601:0.0033052899 602:0.0043321401 603:0.00308362 604:0.018882001 605:0.0067553199 606:0.0119884 607:0.0101682 608:0.151421 609:0.15860599 610:0.13715599 611:0.42521 612:0.028031999 613:0.0058530001 614:0.00162378 615:0.00076122303 616:0.000109592 617:0.000438155 618:0.000438155 619:0.00063727499 620:0.00224989 621:0.00171716 622:0.0105749 623:0.0067381002 624:0.0080364402 625:0.00332203 626:0.0030483601 627:0.0030726299 628:0.00663639 629:0.0044815498 630:0.00069045398 631:0.66841799 632:0.0115292 633:0.0033551001 634:0.00069199799 635:0.00073234201 636:0.00073234201 637:0.00153376 638:0.00471076 639:0.00020681 640:0.0095517496 641:0.00095886103 642:0.00481549 643:0.00252789 644:0.0047517801 645:0.0059222202 646:0.088368297 647:0.24363799 648:0.021396101 649:0.0077342298 650:0.0021456799 651:0.00100589 652:0.00014481699 653:0.00057898299 654:0.00057898299 655:0.00084210403 656:0.0029730401 657:0.0022690699 658:0.0139739 659:0.0089038098 660:0.0106195 661:0.0043897699 662:0.0040281499 663:0.00406022 664:0.00876942 665:0.0059219799 666:0.00091237499 667:0.88325602 668:0.0152348 669:0.0044334801 670:0.000914415 671:0.00096772599 672:0.00096772599 673:0.00202673 674:0.00622486 675:0.000273282 676:0.0126218 677:0.00126705 678:0.0063632601 679:0.00334039 680:0.0062790699 681:0.0078256996 682:0.116771 683:0.321946 684:0.028272999 685:0.028063901 686:0.00033175899 687:0.0023361901 688:0.0018980301 689:0.0036673101 690:0.0064922902 691:0.0024393101 692:0.026515501 693:0.00325709 694:0.0267791 695:0.0100333 696:0.0074672899 697:0.0081420001 698:0.0051543401 699:0.0061428002 700:0.0227316 701:0.0297052 702:0.0077755498 703:0.28898001 704:0.00567808 705:0.0025954801 706:0.00055457401 707:0.00139626 708:0.00135647 709:0.00036343699 710:0.00114469 711:0.00094016199 712:0.001922 713:0.00189514 714:0.0027576899 715:0.0036273501 716:0.005072 717:0.0083273202 718:0.044026099 719:0.102238 720:0.0206648 721:0.087452702 722:0.00103382 723:0.0072800298 724:0.0059146201 725:0.011428 726:0.0202312 727:0.0076013599 728:0.082627296 729:0.0101497 730:0.083448797 731:0.031265799 732:0.023269501 733:0.025372099 734:0.0160619 735:0.019142101 736:0.070835903 737:0.092566997 738:0.0242301 739:0.900518 740:0.017694 741:0.0080880197 742:0.00172816 743:0.0043510199 744:0.0042270301 745:0.0011325401 746:0.00356708 747:0.0029297301 748:0.0059893401 749:0.0059056198 750:0.0085934801 751:0.0113035 752:0.0158053 753:0.025949599 754:0.13719399 755:0.31859401 756:0.064395398 757:0.0108253 759:0.037954301 760:0.0113817 761:0.0245315 762:0.043175001 763:0.0025496799 764:0.0571962 765:0.029545199 766:0.082218602 767:0.019828999 768:0.00384243 769:0.00102305 770:0.0039411401 771:0.0037630801 772:0.00081857003 773:0.0024619801 775:0.020207301 776:0.0029426101 777:0.00304768 778:0.00039661099 779:0.0014176 780:0.00192164 781:0.0064945598 782:0.017181899 783:0.0119142 784:0.060653601 785:0.043315601 786:0.0359933 787:0.0204685 788:0.0076598502 789:0.00456212 793:0.0077820602 795:0.027284499 796:0.0081820805 797:0.0176352 798:0.031037601 799:0.00183291 800:0.041117098 801:0.0212394 802:0.059105098 803:0.0142546 804:0.0027622301 805:0.00073544902 806:0.0028331999 807:0.0027051901 808:0.00058845198 809:0.00176986 811:0.0145266 812:0.00211537 813:0.00219091 814:0.00028511501 815:0.0010190801 816:0.0013814199 817:0.0046688002 818:0.0123516 819:0.0085648503 820:0.0436025 821:0.031138601 822:0.0258747 823:0.0147144 824:0.0055065001 825:0.0032796101 829:0.171244 830:0.0035762601 831:0.0070968899 832:0.00180799 833:0.00372428 834:0.00381342 835:0.00208041 836:0.015803 837:0.040419299 838:0.040550798 839:0.0052742502 842:0.0065777102 843:0.0065777102 844:0.00069646398 845:0.00306854 846:0.0059828698 847:0.87342298 848:0.0169985 849:0.37102801 850:0.092060201 851:0.00237168 852:0.00237168 853:0.00206605 854:0.0073128301 855:0.0084411697 856:0.073459297 857:0.025418701 858:0.00828085 859:0.00202393 860:0.00287539 861:0.0026866801 862:0.035178699 863:0.194263 864:0.0079928404 865:0.119507 866:0.0024957899 867:0.0049527502 868:0.00126175 869:0.0025990901 870:0.0026612901 871:0.00145187 872:0.0110285 873:0.0282076 874:0.028299401 875:0.0036807701 878:0.0045904201 879:0.0045904201 880:0.000486045 881:0.0021414601 882:0.0041752998 883:0.609541 884:0.0118628 885:0.25893101 886:0.064246602 887:0.00165514 888:0.00165514 889:0.00144185 890:0.00510344 891:0.00589089 892:0.0512654 893:0.0177391 894:0.005779 895:0.00141245 896:0.00200666 897:0.00187497 898:0.024550401 899:0.135572 900:0.0055780099 901:0.46616301 902:0.0263674 903:0.12368 904:0.035320502 905:0.0079111997 906:0.0086441403 907:0.00496548 908:0.0079860603 909:0.0142605 910:0.0406297 911:0.0068597901 912:0.0046505998 913:0.00118638 914:0.00909035 915:0.0091525596 916:0.040012602 917:0.115478 918:0.016873701 919:0.485358 920:0.0040742802 921:0.115928 922:0.0393278 923:0.00318097 924:0.00318097 925:0.00123201 926:0.00548966 927:0.00323545 928:0.0283491 929:0.0035581701 930:0.0039647999 931:0.00123201 932:0.0059610899 933:0.0059610899 934:0.035608701 935:0.118464 936:0.0048889602 937:0.52290601 938:0.029577 939:0.138735 940:0.0396199 941:0.0088741798 942:0.0096963299 943:0.0055698999 944:0.0089581497 945:0.0159963 946:0.045575298 947:0.0076947901 948:0.0052166898 949:0.00133079 950:0.0101969 951:0.0102666 952:0.044883098 953:0.12953401 954:0.0189276 955:0.54443699 956:0.0045702099 957:0.13003901 958:0.044114899 959:0.0035681699 960:0.0035681699 961:0.00138197 962:0.0061578802 963:0.00362928 964:0.031799901 965:0.00399129 966:0.0044474099 967:0.00138197 968:0.0066866898 969:0.0066866898 970:0.039943099 971:0.132884 972:0.0054840501 973:0.0124666 974:0.0093967998 975:0.0029814399 976:0.00190249 977:0.00230156 978:0.0038894401 979:0.0089496998 980:0.045133501 981:0.0048679598 982:0.076218501 983:0.0199387 984:0.00820453 985:0.0407391 986:0.186845 987:0.101402 988:0.0048355898 989:0.00095445098 990:0.00253461 991:0.33333501 992:0.0017449301 993:0.044733301 994:0.0082800603 995:0.000159553 996:0.000159553 1000:0.0109946 1001:0.00082780601 1002:0.0093226703 1003:0.055800799 1004:0.29755199 1005:0.259361 1006:0.0785622 1007:0.070492499 1008:0.089396499 1009:0.051276799 1010:0.017211201 1011:0.137209 1012:0.059044302 1013:0.052656598 1014:0.057015199 1015:0.024070799 1016:0.0212822 1017:0.0060777199 1018:0.0079664001 1022:0.00082248001 1023:0.00094649103 1024:0.00141695 1025:0.00294001 1026:0.00151412 1027:0.00185722 1030:0.00462399 1031:0.0194807 1032:0.017305 1033:0.0054903799 1034:0.0053711501 1036:0.0067036701 1040:0.00045103999 1041:0.00045103999 1045:0.68118 1046:0.0061489702 1047:0.0591732 1048:0.0111454 1049:0.0052444302 1050:0.0060840598 1051:0.0046700798 1052:0.0061209202 1053:0.00435689 1054:0.026678599 1055:0.0095446697 1056:0.0169385 1057:0.0143667 1058:0.213945 1059:0.224096 1060:0.19379 1061:0.600784 1062:0.039606702 1063:0.014622 1064:0.0052565699 1065:0.00372685 1066:0.0027834801 1067:0.00965086 1068:0.00814394 1069:0.0027332299 1070:0.0055688801 1071:0.00806469 1072:0.0076828902 1073:0.0027762 1074:0.0138899 1075:0.019636201 1076:0.0106427 1077:0.012352 1078:0.0120544 1079:0.00285554 1080:0.0052269702 1081:0.482245 1082:0.0043532001 1083:0.041892 1084:0.0078904396 1085:0.0037128199 1086:0.0043072398 1087:0.00330621 1088:0.0043333401 1089:0.0030844801 1090:0.0188873 1091:0.0067572002 1092:0.0119917 1093:0.010171 1094:0.151463 1095:0.15865 1096:0.13719399 1097:0.425329 1098:0.0280398 1099:0.0103517 1100:0.00372142 1101:0.0026384499 1102:0.0019705801 1103:0.0068323798 1104:0.0057655498 1105:0.0019349999 1106:0.0039425199 1107:0.00570944 1108:0.0054391501 1109:0.0019654301 1110:0.0098334299 1111:0.0139015 1112:0.0075345701 1113:0.0087446803 1114:0.0085340003 1115:0.00202159 1116:0.0037004601 1117:0.66860402 1118:0.0115324 1119:0.00335604 1120:0.00069219002 1121:0.00073254597 1122:0.00073254597 1123:0.00153419 1124:0.0047120699 1125:0.000206868 1126:0.0095544104 1127:0.00095912802 1128:0.0048168302 1129:0.0025285899 1130:0.00475311 1131:0.00592387 1132:0.088392898 1133:0.243706 1134:0.021402 1135:0.0079891598 1136:0.00089324598 1137:0.00048442301 1139:0.0039570201 1140:0.0054863398 1141:0.0040896898 1142:0.0037239699 1143:0.00086035603 1144:0.0062185498 1145:0.00449477 1146:0.00572197 1147:0.0061412901 1148:0.0066711102 1149:0.00625748 1150:0.0039171302 1151:0.00560298 1152:0.00090745301 1153:0.77104801 1154:0.0132994 1155:0.00387025 1156:0.00079824898 1157:0.00084478699 1158:0.00084478699 1159:0.00176926 1160:0.00543406 1161:0.000238564 1162:0.0110183 1163:0.00110609 1164:0.0055548698 1165:0.0029160299 1166:0.00548138 1167:0.00683153 1168:0.101937 1169:0.281046 1170:0.0246813 1171:0.0092132697 1172:0.0010301101 1173:0.00055864698 1175:0.00456332 1176:0.0063269702 1177:0.00471632 1178:0.0042945598 1179:0.00099218101 1180:0.0071713701 1181:0.00518347 1182:0.0065986998 1183:0.00708227 1184:0.0076932702 1185:0.0072162598 1186:0.0045173201 1187:0.0064614802 1188:0.00104649 1189:0.25226799 1190:0.0049567502 1191:0.00226575 1192:0.00048412199 1193:0.0012188799 1194:0.00118415 1195:0.00031726601 1196:0.00099927105 1197:0.00082072499 1198:0.00167784 1199:0.00165438 1200:0.0024073501 1201:0.00316653 1202:0.0044276598 1203:0.00726943 1204:0.038433101 1205:0.089250103 1206:0.0180395 1207:0.429461 1208:0.0093089296 1210:0.00122264 1211:0.0039292001 1212:0.00365353 1213:0.00074058701 1214:0.00362826 1215:0.0030525499 1216:0.0133867 1217:0.00204963 1218:0.00242418 1219:0.00381382 1220:0.042013802 1221:0.037819698 1222:0.089168102 1223:0.21162499 1224:0.0157919 1225:0.442929 1226:0.0087029804 1227:0.00397817 1228:0.00085001299 1229:0.0021400901 1230:0.0020791099 1231:0.00055705098 1232:0.0017545 1233:0.0014410201 1234:0.00294592 1235:0.0029047399 1236:0.0042267898 1237:0.0055597499 1238:0.0077740098 1239:0.0127636 1240:0.067480199 1241:0.15670399 1242:0.031673498 1243:0.75404102 1244:0.016344501 1246:0.0021466999 1247:0.0068988199 1248:0.00641482 1249:0.00130031 1250:0.0063704299 1251:0.0053596199 1252:0.023504101 1253:0.0035987101 1254:0.00425633 1255:0.0066962498 1256:0.0737672 1257:0.066403203 1258:0.15656 1259:0.37156701 1260:0.027727099 1261:0.0099391704 1262:0.00144735 1263:0.00149903 1264:0.00019507699 1265:0.00069726002 1266:0.00094517699 1267:0.0031944199 1268:0.0084510697 1269:0.0058601201 1270:0.029833101 1271:0.0213052 1272:0.0177036 1273:0.0100676 1274:0.00376758 1275:0.00224393 1279:0.117053 1280:0.00029512099 1281:0.000192591 1283:0.00135649 1284:0.00135649 1285:5.0112099e-05 1286:0.00056051603 1288:0.00083671499 1289:0.00100946 1290:0.00201147 1291:0.00210401 1292:0.064950503 1293:0.065403201 1294:0.028335299 1295:0.073517203 1296:0.0075183702 1297:0.0143838 1298:0.0020945901 1299:0.00216937 1300:0.00028231301 1301:0.00100906 1302:0.00136785 1303:0.0046229102 1304:0.0122303 1305:0.0084806699 1306:0.043173999 1307:0.0308326 1308:0.025620401 1309:0.0145697 1310:0.00545238 1311:0.00324737 1315:0.16939799 1316:0.000427094 1317:0.00027871499 1319:0.0019630999 1320:0.0019630999 1321:7.25215e-05 1322:0.00081116997 1324:0.00121088 1325:0.00146087 1326:0.00291096 1327:0.00304489 1328:0.0939954 1329:0.0946505 1330:0.041006502 1331:0.106393 1332:0.0108805 1333:0.86483902 1334:0.0168314 1335:0.36738101 1336:0.091155402 1337:0.0023483799 1338:0.0023483799 1339:0.0020457499 1340:0.0072409599 1341:0.0083582103 1342:0.072737299 1343:0.025168899 1344:0.0081994599 1345:0.0020040299 1346:0.0028471299 1347:0.0026602701 1348:0.034832999 1349:0.19235399 1350:0.0079142898 1351:0.00183467 1353:0.000218275 1354:0.00017178099 1355:0.00080725201 1356:0.0010185899 1357:0.00142123 1358:0.00189011 1359:0.00211077 1360:0.00407258 1361:0.0043024598 1362:0.005051 1363:0.0047885701 1364:0.0085227499 1365:0.0079163304 1366:0.0024395499 1367:0.0015550799 1368:0.000440862 1369:0.712304 1370:0.0138628 1371:0.30258501 1372:0.075077899 1373:0.00193418 1374:0.00193418 1375:0.0016849299 1376:0.0059638401 1377:0.0068840398 1378:0.059908301 1379:0.020729801 1380:0.0067532901 1381:0.00165057 1382:0.0023449699 1383:0.00219107 1384:0.028689301 1385:0.158428 1386:0.0065184101 1387:0.00151108 1389:0.00017977699 1390:0.000141483 1391:0.00066487398 1392:0.00083893701 1393:0.00117056 1394:0.00155674 1395:0.0017384799 1396:0.00335428 1397:0.00354362 1398:0.0041601299 1399:0.00394399 1400:0.0070195599 1401:0.0065200902 1402:0.00200927 1403:0.00128081 1404:0.00036310501 1405:0.56718498 1406:0.0047611701 1407:0.135473 1408:0.045958102 1409:0.00371725 1410:0.00371725 1411:0.00143972 1412:0.0064151702 1413:0.00378091 1414:0.0331285 1415:0.0041580498 1416:0.0046332302 1417:0.00143971 1418:0.0069660801 1419:0.0069660801 1420:0.041611999 1421:0.138436 1422:0.00571319 1427:0.000105775 1428:0.000105775 1429:8.5316497e-05 1430:0.00025660201 1431:0.000615064 1432:0.0153988 1433:0.0118094 1434:0.0100721 1435:0.00300514 1436:0.00266163 1437:0.00256883 1441:0.68696702 1442:0.00576666 1443:0.16408201 1444:0.055663802 1445:0.0045022801 1446:0.0045022801 1447:0.00174376 1448:0.00776996 1449:0.0045793899 1450:0.0401248 1451:0.0050361701 1452:0.0056117 1453:0.00174376 1454:0.0084372098 1455:0.0084372098 1456:0.050399899 1457:0.16767199 1458:0.00691973 1463:0.000128113 1464:0.000128113 1465:0.000103334 1466:0.000310793 1467:0.00074495602 1468:0.0186508 1469:0.0143034 1470:0.0121992 1471:0.00363978 1472:0.00322373 1473:0.0031113401 1477:0.4206 1478:0.0022017399 1479:0.056444101 1480:0.0104477 1481:0.000201323 1482:0.000201323 1486:0.0138729 1487:0.0010445199 1488:0.0117633 1489:0.070408903 1490:0.375449 1491:0.327259 1492:0.099129103 1493:0.088946797 1494:0.1128 1499:0.000128113 1500:0.000128113 1504:0.00764859 1505:0.0063177501 1506:0.0027733301 1507:0.00120766 1508:0.0161973 1509:0.0161973 #
0.049269229956040001827677343726464 1:0.0039727399 2:0.0138376 3:0.019501001 4:0.043564402 5:0.130539 6:0.19573 7:0.057059199 8:0.0175015 10:0.027563101 14:0.00152376 15:0.00152376 16:0.0021746999 17:0.0065407702 19:0.0211295 20:0.00086488703 21:0.0152232 22:0.044267599 23:0.116439 24:0.12202 25:0.094354004 26:0.077254497 27:0.0810977 28:0.45529199 29:0.0208469 30:0.195666 31:0.0858493 32:0.575333 33:0.53390002 34:0.0028576199 37:0.0039956402 40:0.0052751899 41:0.019001 42:0.0119192 46:0.023899101 47:0.041583098 48:0.00592821 50:0.00375862 51:0.00375862 55:0.00067723403 56:0.00088993198 57:0.0011105899 58:0.000364671 59:0.0021671201 60:0.0021671201 61:0.0031191299 62:0.00955653 63:0.0113503 64:0.088716403 65:0.035484102 66:0.0349534 67:0.0379453 68:0.021557201 69:0.019078599 70:0.00603471 71:0.00136566 73:0.018818401 76:0.0248447 77:0.089489304 78:0.056136101 82:0.112558 83:0.19584499 84:0.0279202 86:0.017702101 87:0.017702101 91:0.0031895901 92:0.0041913399 93:0.0052305702 94:0.0017175 95:0.0102065 96:0.0102065 97:0.0146902 98:0.0450087 99:0.053456701 100:0.41782999 101:0.16711999 102:0.164621 103:0.178712 104:0.101529 105:0.089854702 106:0.028421801 107:0.0064318702 118:0.104511 119:0.221976 120:0.111406 121:0.0147283 122:0.034735899 123:0.033968698 124:0.00101298 125:0.00304669 127:0.15923201 128:0.035811398 129:0.017743301 130:0.00042805701 131:0.00143529 132:0.0022024801 133:0.0086475704 134:0.026449701 135:0.080982402 136:0.51934397 137:0.42143899 138:0.27373201 139:0.093688697 140:0.0128599 141:0.0084522897 142:0.0108653 143:0.051468302 144:0.0759314 154:0.097364798 155:0.206798 156:0.103789 157:0.0137212 158:0.0323608 159:0.031646099 160:0.00094371202 161:0.0028383599 163:0.148344 164:0.033362702 165:0.01653 166:0.00039878799 167:0.00133715 168:0.0020518799 169:0.00805627 170:0.0246411 171:0.075445101 172:0.48383299 173:0.39262199 174:0.25501499 175:0.087282598 176:0.0119806 177:0.0078743398 178:0.0101224 179:0.047949102 180:0.0707395 185:0.0026743 186:0.0026743 187:0.00094370102 188:0.0028383201 189:0.0077877101 190:0.167667 191:0.096713901 192:0.039748698 193:0.0115841 194:0.0136702 195:0.0123315 199:0.096368603 200:0.0240687 201:0.0123267 203:0.00133715 204:0.00133715 205:0.0096467696 206:0.037374899 207:0.060090799 208:0.50098199 209:0.28381899 210:0.173926 211:0.0699194 212:0.019896001 213:0.032131199 214:0.0505987 215:0.071332797 216:0.077378102 221:0.00080278702 222:0.00080278702 223:0.000283286 224:0.00085202698 225:0.0023377601 226:0.050331499 227:0.029032201 228:0.011932 229:0.0034773899 230:0.0041036 231:0.00370176 235:0.0289286 236:0.0072250902 237:0.0037003099 239:0.00040139401 240:0.00040139401 241:0.00289583 242:0.0112194 243:0.0180384 244:0.150388 245:0.085198604 246:0.052210301 247:0.0209889 248:0.0059725 249:0.0096453503 250:0.015189 251:0.021413101 252:0.0232278 257:0.33164001 258:0.34101799 259:0.23473001 260:0.72460598 261:0.0086379601 262:0.076612897 263:0.0043863198 264:0.0114551 265:0.00380865 266:0.0094996998 267:0.0094996998 271:0.022650899 272:0.00094597001 273:0.0040595699 274:0.00323223 275:0.126232 276:0.123849 277:0.089514904 278:0.28351799 279:0.0486186 280:0.15550999 281:0.0103288 282:0.00431759 283:0.00129053 284:0.0222106 285:0.0222106 286:0.0014001 287:0.0077156899 288:0.00415183 293:0.326509 294:0.335742 295:0.23109899 296:0.71339399 297:0.0085043097 298:0.075427502 299:0.0043184501 300:0.0112779 301:0.00374971 302:0.0093527203 303:0.0093527203 307:0.0223005 308:0.00093133299 309:0.0039967601 310:0.00318222 311:0.124279 312:0.121933 313:0.0881299 314:0.279131 315:0.0478663 316:0.15310299 317:0.010169 318:0.0042507802 319:0.00127056 320:0.021866901 321:0.021866901 322:0.0013784399 323:0.0075963102 324:0.0040875901 325:0.0044787801 329:0.018441999 330:0.020160999 331:0.0115496 332:0.016363399 333:0.0134528 334:0.134802 336:0.061754301 337:0.0290691 338:0.031357899 339:0.029638801 343:0.0271361 345:0.0054991301 346:0.00182838 347:0.023535499 348:0.023535499 349:0.0153618 350:0.066716403 351:0.095339097 352:0.143957 353:0.0287049 354:0.057179298 355:0.0324146 356:0.0244203 357:0.0244202 358:0.0085437903 359:0.00074564503 361:0.0127381 365:0.052450601 366:0.057339702 367:0.032848202 368:0.046538901 369:0.038261 370:0.38339001 372:0.175635 373:0.082675397 374:0.089184701 375:0.084295601 379:0.077177703 381:0.01564 382:0.0052000801 383:0.066937096 384:0.066937096 385:0.043690499 386:0.189748 387:0.271153 388:0.40942699 389:0.081639402 390:0.162623 391:0.092189997 392:0.0694535 393:0.069453202 394:0.024299299 395:0.0021206799 401:0.0244771 402:0.029340601 403:0.0258398 404:0.012724 406:0.21829499 407:0.052512798 408:0.10619 409:0.023474701 410:0.19269399 411:0.19269399 415:0.051486298 416:0.0206425 417:0.0258401 418:0.0163181 419:0.057930999 420:0.090349801 421:0.0780854 422:0.148904 423:0.192546 424:0.38448599 425:0.0563417 426:0.042129699 427:0.123878 428:0.18413299 429:0.14448901 430:0.0088428399 431:0.0245375 437:0.0075124102 438:0.0090050995 439:0.0079306699 440:0.0039052099 442:0.066998303 443:0.016116999 444:0.032591499 445:0.0072047799 446:0.059140898 447:0.059140898 451:0.015802 452:0.0063355202 453:0.00793075 454:0.0050082798 455:0.01778 456:0.0277298 457:0.0239657 458:0.045701198 459:0.059095301 460:0.118005 461:0.0172922 462:0.0129303 463:0.038020302 464:0.056513399 465:0.044346102 466:0.00271401 467:0.00753097 478:0.0055959602 481:0.0465464 482:0.59570998 483:0.434508 484:0.0078489296 487:0.00095581001 488:0.0085042799 489:0.0245836 490:0.0134771 491:0.0103424 492:0.00777752 493:0.00726448 494:0.0204562 495:0.025184 496:0.043415502 497:0.0088950498 498:0.00362374 499:0.0326492 500:0.50900602 501:0.38368601 502:0.0289574 503:0.00162718 505:0.0091640502 506:0.000375109 507:0.00660244 508:0.0191992 509:0.050500698 510:0.052921299 511:0.040922198 512:0.033505902 513:0.035172801 514:0.197464 515:0.00904149 516:0.084862202 517:0.037233599 518:0.24952701 519:0.231557 520:0.00123937 523:0.34837499 524:0.0151905 525:0.0115616 526:0.0058661099 527:0.059789099 528:0.065703399 529:0.0044160401 530:0.0035277901 531:0.0049125799 532:0.0144808 533:0.0018091101 534:0.0041880198 535:0.00251573 536:0.143097 537:0.14366899 538:0.117639 539:0.37540099 540:0.00318831 541:0.000293722 542:0.00038597101 543:0.000481672 544:0.000158161 545:0.00093989703 546:0.00093989703 547:0.00135279 548:0.0041447501 549:0.0049227201 550:0.0384771 551:0.0153898 552:0.0151596 553:0.0164572 554:0.0093495501 555:0.0082745301 556:0.00261731 557:0.000592297 559:0.16128799 560:0.0125744 561:0.0026515101 563:0.00024966101 564:0.00024966101 565:0.00069239398 566:0.00231966 568:0.0057568899 569:0.0027239199 570:0.0102979 571:0.0079401098 572:0.050911099 573:0.051995698 574:0.236955 575:0.64052099 576:0.0141344 577:0.000411594 578:0.00054086198 579:0.000674968 580:0.00022163099 581:0.00131708 582:0.00131708 583:0.00189567 584:0.0058080498 585:0.0068982202 586:0.053918 587:0.0215657 588:0.0212432 589:0.023061501 590:0.0131015 591:0.0115951 592:0.00366764 593:0.000829987 595:0.226013 596:0.0176205 597:0.0037155701 599:0.00034984999 600:0.00034984999 601:0.00097025302 602:0.00325055 604:0.0080671404 605:0.00381703 606:0.0144304 607:0.0111265 608:0.071341902 609:0.072861701 610:0.332046 611:0.89756399 612:0.019806501 613:0.0205478 614:0.00462121 615:0.00228964 616:5.5237801e-05 617:0.000185214 618:0.000284215 619:0.00111591 620:0.0034131401 621:0.0104502 622:0.067017697 623:0.054383799 624:0.035323199 625:0.0120899 626:0.00165948 627:0.0010907101 628:0.00140209 629:0.0066416301 630:0.0097984197 631:0.060618199 632:0.0048914598 633:0.00703082 634:0.0011267799 635:0.00131798 636:0.00123476 637:0.000624537 638:0.00212015 639:0.00049451401 640:0.0066265799 641:0.00432193 642:0.0097840196 643:0.0044195699 644:0.0121848 645:0.016542099 646:0.023332801 647:0.038118199 648:0.028717799 649:0.12876301 650:0.028959 651:0.0143481 652:0.00034614999 653:0.00116065 654:0.00178104 655:0.00699289 656:0.0213886 657:0.065486699 658:0.41996899 659:0.34079799 660:0.22135501 661:0.075761698 662:0.0103992 663:0.0068349699 664:0.0087862797 665:0.041620001 666:0.061402202 667:0.37986699 668:0.030652599 669:0.0440589 670:0.0070610498 671:0.0082591996 672:0.0077376999 673:0.0039136899 674:0.013286 675:0.0030989 676:0.0415258 677:0.0270836 678:0.061312001 679:0.027695401 680:0.076356702 681:0.103662 682:0.14621601 683:0.238869 684:0.179961 685:0.083648503 686:0.0208917 687:0.0106997 689:0.00116065 690:0.00116065 691:0.0083734496 692:0.032441601 693:0.052159101 694:0.43485501 695:0.246356 696:0.150969 697:0.060690399 698:0.017269799 699:0.02789 700:0.043919899 701:0.061917301 702:0.0671646 703:0.034451801 704:0.025686599 705:0.0127171 706:0.0039344798 707:0.025436901 708:0.0243739 709:0.0055762501 710:0.0197288 711:0.0248513 712:0.101461 713:0.0121092 714:0.077211097 715:0.071835302 716:0.065182097 717:0.072771698 718:0.0645639 719:0.0592869 720:0.0232525 721:0.0617976 722:0.0154343 723:0.00790466 725:0.00085746299 726:0.00085746299 727:0.00618611 728:0.0239671 729:0.0385339 730:0.32126099 731:0.18200199 732:0.111532 733:0.0448367 734:0.0127585 735:0.020604501 736:0.032446999 737:0.0457431 738:0.0496196 739:0.0254522 740:0.0189767 741:0.0093950704 742:0.0029066999 743:0.018792201 744:0.0180069 745:0.0041196002 746:0.0145752 747:0.0183596 748:0.074956901 749:0.0089460202 750:0.057041802 751:0.053070299 752:0.048155099 753:0.053762101 754:0.047698401 755:0.043799799 756:0.017178399 757:0.0483872 758:0.00202079 759:0.0086721098 760:0.0069047301 761:0.269658 762:0.264568 763:0.191223 764:0.60565501 765:0.10386 766:0.33220199 767:0.0220645 768:0.0092232898 769:0.0027568501 770:0.047446601 771:0.047446601 772:0.0029909101 773:0.0164824 774:0.0088692 775:0.0493351 776:0.018609701 777:0.022554699 778:0.0143896 779:0.019952999 780:0.030846801 781:0.0279638 782:0.0361907 783:0.101058 784:0.315236 785:0.142691 786:0.029818701 787:0.0029585699 788:0.0051448098 789:0.0051448098 790:0.00053792301 791:0.00161789 793:0.046251699 794:0.0019316101 795:0.00828938 796:0.0066 797:0.25775701 798:0.252891 799:0.18278401 800:0.57892501 801:0.099275902 802:0.31753999 803:0.021090699 804:0.0088162301 805:0.00263518 806:0.045352601 807:0.045352601 808:0.00285891 809:0.015754901 810:0.0084777698 811:0.047157701 812:0.017788401 813:0.0215593 814:0.0137545 815:0.0190724 816:0.029485401 817:0.026729699 818:0.0345935 819:0.096598201 820:0.301323 821:0.13639399 822:0.028502701 823:0.0028279901 824:0.0049177501 825:0.0049177501 826:0.00051418302 827:0.00154649 829:0.056281 831:0.0114053 832:0.0037921099 833:0.048813201 834:0.048813201 835:0.031860799 836:0.13837101 837:0.197736 838:0.29857099 839:0.059534699 840:0.118591 841:0.0672286 842:0.050648302 843:0.050648 844:0.017720001 845:0.00154649 847:0.038743399 848:0.0119017 849:0.036134101 850:0.0204219 851:0.0286233 852:0.0258637 853:0.00314936 854:0.018821901 855:0.075761303 856:0.22474 857:0.106175 860:0.010473 861:0.010473 862:0.00149508 863:0.0030163899 864:0.0126973 865:0.0522586 867:0.0105902 868:0.0035210799 869:0.045324501 870:0.045324501 871:0.0295837 872:0.128482 873:0.183603 874:0.27723199 875:0.055279698 876:0.110116 877:0.062423799 878:0.0470284 879:0.047028199 880:0.0164536 881:0.0014359599 883:0.035974398 884:0.0110511 885:0.0335516 886:0.018962299 887:0.026577599 888:0.024015199 889:0.00292428 890:0.0174767 891:0.070346601 892:0.20867801 893:0.098586999 896:0.0097244801 897:0.0097244801 898:0.00138822 899:0.0028008099 900:0.0117898 901:0.034862399 902:0.0139775 903:0.017496901 904:0.0110493 905:0.039226301 906:0.061177701 907:0.052873202 908:0.100826 909:0.13037699 910:0.26034299 911:0.038150098 912:0.0285269 913:0.083880499 914:0.12468 915:0.097836703 916:0.0059876698 917:0.016614901 919:0.72300702 920:0.109679 921:0.247677 922:0.12597001 923:0.0547489 924:0.050055899 925:0.0294932 926:0.028291499 927:0.036956899 928:0.104392 929:0.0229223 930:0.020318801 931:0.002259 932:0.055556301 933:0.055898301 934:0.0029112101 936:0.0093240999 937:0.0096529899 938:0.0038701899 939:0.00484468 940:0.00305942 941:0.0108613 942:0.0169394 943:0.01464 944:0.027917599 945:0.036099698 946:0.072085999 947:0.0105633 948:0.0078987498 949:0.023225499 950:0.0345225 951:0.027089801 952:0.00165792 953:0.0046004602 955:0.200192 956:0.0303689 957:0.068578698 958:0.034879699 959:0.0151593 960:0.0138599 961:0.0081663104 962:0.0078335702 963:0.0102329 964:0.028904799 965:0.0063469098 966:0.0056260298 967:0.00062548998 968:0.0153829 969:0.0154776 970:0.00080607901 972:0.00258173 973:0.00058387802 974:0.00519503 975:0.0150174 976:0.0082327798 977:0.0063179098 978:0.0047510699 979:0.0044376701 980:0.0124961 981:0.0153842 982:0.026521301 983:0.0054337401 984:0.0022136499 985:0.0199445 986:0.310938 987:0.234384 988:0.017689301 989:0.00099399698 991:0.51577502 992:0.0130686 993:0.21417999 994:0.0260866 995:0.000468276 996:0.000468276 1000:0.0092938198 1001:0.0027717701 1002:0.00094945502 1003:0.0549834 1004:0.463052 1005:0.389411 1006:0.14442199 1007:0.173288 1008:0.231644 1009:0.338649 1010:0.0147664 1011:0.0112388 1012:0.0057023298 1013:0.0581198 1014:0.063868999 1015:0.0042927498 1016:0.0034292999 1017:0.0047754301 1018:0.0140765 1019:0.00175861 1020:0.0040711001 1021:0.0024455001 1022:0.139102 1023:0.139658 1024:0.114355 1025:0.364921 1026:0.00309929 1031:0.020186201 1032:0.020186201 1033:0.0035162901 1034:0.0105758 1035:0.0042401198 1036:0.0066661001 1040:0.00059959001 1041:0.00059959001 1045:0.156785 1046:0.0122233 1047:0.0025774899 1049:0.00024269 1050:0.00024269 1051:0.00067306298 1052:0.0022549001 1054:0.0055961702 1055:0.00264787 1056:0.0100104 1057:0.0077184401 1058:0.0494898 1059:0.050544102 1060:0.23034 1061:0.622639 1062:0.0137398 1063:0.26389101 1064:0.0031077 1065:0.00163637 1066:0.00054406701 1067:0.036974698 1068:0.036974698 1069:0.000357488 1070:0.00176325 1072:0.0052821101 1074:0.00349735 1075:0.0039419699 1076:0.224209 1077:0.200223 1078:0.069013 1079:0.229462 1080:0.00281142 1081:0.18809199 1082:0.014664 1083:0.00309216 1085:0.00029115099 1086:0.00029115099 1087:0.00080745999 1088:0.0027051601 1090:0.0067136101 1091:0.0031766 1092:0.0120092 1093:0.0092596496 1094:0.0593719 1095:0.060636699 1096:0.27633399 1097:0.74696702 1098:0.016483299 1099:0.31658399 1100:0.00372824 1101:0.0019631099 1102:0.00065270701 1103:0.044357799 1104:0.044357799 1105:0.00042887099 1106:0.00211533 1108:0.0063368399 1110:0.0041956902 1111:0.0047291 1112:0.26897901 1113:0.24020401 1114:0.082793497 1115:0.27528101 1116:0.0033728001 1117:0.050447501 1118:0.0040707602 1119:0.0058511598 1120:0.00093772903 1121:0.00109685 1122:0.00102759 1123:0.00051975 1124:0.00176442 1125:0.00041154301 1126:0.0055147498 1127:0.0035967799 1128:0.0081424201 1129:0.0036780401 1130:0.0101404 1131:0.0137666 1132:0.019417999 1133:0.031722602 1134:0.023899401 1135:0.0067249001 1136:0.001673 1137:0.00036864099 1141:0.000217568 1142:0.00065436901 1144:0.0082207303 1145:0.00092596398 1146:0.00236472 1147:0.00072832801 1148:0.00080494903 1149:0.00080494903 1150:0.0045340401 1151:0.0152634 1152:0.00124748 1153:0.61616999 1154:0.0497206 1155:0.071466699 1156:0.0114535 1157:0.013397 1158:0.0125511 1159:0.0063482798 1160:0.021550899 1161:0.0050266301 1162:0.067357697 1163:0.043931499 1164:0.099452302 1165:0.044923998 1166:0.123856 1167:0.168147 1168:0.23717301 1169:0.387463 1170:0.29190999 1171:0.082138598 1172:0.020434201 1173:0.0045026098 1177:0.0026574 1178:0.00799252 1180:0.100409 1181:0.0113098 1182:0.0288829 1183:0.0088958796 1184:0.0098317303 1185:0.0098317303 1186:0.055379201 1187:0.186428 1188:0.0152369 1189:0.055883199 1190:0.041665401 1191:0.020628 1192:0.0063820002 1193:0.041260399 1194:0.0395361 1195:0.0090450598 1196:0.032001399 1197:0.040310599 1198:0.16457599 1199:0.019641999 1200:0.12524199 1201:0.116522 1202:0.10573 1203:0.118041 1204:0.104727 1205:0.096167497 1206:0.037717201 1207:0.102146 1216:0.0178659 1217:0.0214836 1218:0.034488901 1219:0.015670599 1220:0.116307 1221:0.13278 1222:0.098003499 1223:0.078802601 1224:0.16468599 1225:0.058482099 1226:0.0436031 1227:0.021587299 1228:0.0066788001 1229:0.0431793 1230:0.041374698 1231:0.0094657 1232:0.0334897 1233:0.042185199 1234:0.17223001 1235:0.0205555 1236:0.13106599 1237:0.121941 1238:0.110647 1239:0.12353 1240:0.109598 1241:0.10064 1242:0.039471298 1243:0.106896 1252:0.018696699 1253:0.022482701 1254:0.036092799 1255:0.0163993 1256:0.121716 1257:0.138955 1258:0.102561 1259:0.082467303 1260:0.172345 1261:0.113358 1262:0.04276 1263:0.051824499 1264:0.0330633 1265:0.0458465 1266:0.070877403 1267:0.064253099 1268:0.083156303 1269:0.23220401 1270:0.724325 1271:0.327865 1272:0.068515196 1273:0.00679796 1274:0.0118213 1275:0.0118213 1276:0.001236 1277:0.00371746 1288:0.107213 1289:0.173099 1290:0.083393604 1291:0.037909299 1292:0.031899199 1293:0.0260507 1297:0.099848799 1298:0.037664101 1299:0.045648299 1300:0.0291229 1301:0.040382698 1302:0.062430602 1303:0.056595799 1304:0.073246099 1305:0.204531 1306:0.63800299 1307:0.288791 1308:0.0603499 1309:0.0059878202 1310:0.0104125 1311:0.0104125 1312:0.0010887 1313:0.0032744301 1324:0.094436198 1325:0.15246999 1326:0.073455103 1327:0.033391502 1328:0.0280976 1329:0.022946101 1333:0.082032897 1334:0.0252 1335:0.076508 1336:0.04324 1337:0.060605101 1338:0.0547622 1339:0.0066682599 1340:0.039852299 1341:0.160412 1342:0.47584999 1343:0.22480901 1346:0.0221749 1347:0.0221749 1348:0.0031655801 1349:0.0063867201 1350:0.0268845 1355:0.00115696 1356:0.00115696 1359:0.071451701 1360:0.229215 1361:0.0843312 1362:0.048110299 1363:0.0111586 1364:0.0137625 1365:0.0127264 1369:0.042240899 1370:0.0129761 1371:0.039395999 1372:0.022265401 1373:0.0312072 1374:0.028198499 1375:0.0034336599 1376:0.020521 1377:0.082600497 1378:0.24502701 1379:0.11576 1382:0.0114184 1383:0.0114184 1384:0.00163004 1385:0.00328869 1386:0.0138435 1391:0.00059574703 1392:0.00059574703 1395:0.036792401 1396:0.118029 1397:0.043424301 1398:0.0247733 1399:0.0057458701 1400:0.0070866798 1401:0.0065531698 1405:0.84894902 1406:0.128785 1407:0.29082 1408:0.14791299 1409:0.064285703 1410:0.058775298 1411:0.0346306 1412:0.033219598 1413:0.043394499 1414:0.122576 1415:0.026915099 1416:0.023858201 1417:0.0026525001 1418:0.065233797 1419:0.065635301 1420:0.0034183201 1422:0.0109483 1427:0.0039716102 1428:0.0047138701 1429:0.0021009899 1430:0.00102062 1431:0.0395649 1432:0.101214 1433:0.051155802 1434:0.0064453501 1436:0.0070496099 1437:0.0070496099 1441:0.21886501 1442:0.033201601 1443:0.074975498 1444:0.0381332 1445:0.016573301 1446:0.0151527 1447:0.0089280298 1448:0.0085642599 1449:0.0111874 1450:0.0316009 1451:0.0069389199 1452:0.00615081 1453:0.00068383297 1454:0.016817801 1455:0.0169213 1456:0.00088126701 1458:0.00282255 1463:0.00102391 1464:0.00121527 1465:0.00054165098 1466:0.00026312299 1467:0.0102001 1468:0.026093701 1469:0.0131883 1470:0.00166166 1472:0.00181744 1473:0.00181744 1477:0.56388402 1478:0.0142876 1479:0.234157 1480:0.028519901 1481:0.00051195599 1482:0.00051195599 1486:0.0101607 1487:0.0030303099 1488:0.00103802 1489:0.060112 1490:0.506244 1491:0.42573401 1492:0.157893 1493:0.18945201 1494:0.25325099 1499:0.000332772 1500:0.000332772 1501:0.000108822 1502:0.00032558601 1504:0.00206548 1505:0.00134899 1506:0.00196294 1507:0.000579432 1508:0.017128401 1509:0.013014 #
-0.025012475579458699065371618530662 23:0.062597603 24:0.062597603 25:0.0289448 26:0.087056004 28:0.332416 30:0.087056004 31:0.0289448 32:0.082564399 33:0.082564399 34:0.0289448 35:0.087056004 59:0.16324 60:0.16324 61:0.0283735 62:0.085337602 64:0.601695 65:0.058148202 66:0.45693299 67:0.140698 68:0.28357899 69:0.29699999 70:0.105785 71:0.087056004 95:0.17633 96:0.17633 97:0.0306486 98:0.092180401 100:0.64994198 101:0.062810801 102:0.493572 103:0.15198 104:0.30631801 105:0.320815 106:0.114268 107:0.094036698 131:0.090933099 132:0.090933099 140:0.0072863498 141:0.0072863498 167:0.70080602 168:0.70080602 176:0.056154702 177:0.056154702 199:0.0134769 212:0.065139197 213:0.065139197 214:0.022738099 215:0.045933601 216:0.0118397 235:0.12603 248:0.60915101 249:0.60915101 250:0.21263599 251:0.42954901 252:0.110719 347:0.66773802 348:0.66773802 356:0.23265 357:0.23265 383:0.66773802 384:0.66773802 392:0.23265 393:0.23265 509:0.062363598 510:0.062363598 511:0.0288366 512:0.086730398 514:0.33117199 516:0.086730503 517:0.0288365 518:0.082255699 519:0.082255699 520:0.0288365 521:0.086730503 527:0.00188167 528:0.00188167 529:0.000379434 530:0.00114121 532:0.00107525 545:0.16263001 546:0.16263001 547:0.0282674 548:0.085018501 550:0.59944499 551:0.0579307 552:0.45522401 553:0.140172 554:0.28251901 555:0.29588899 556:0.10539 557:0.086730503 559:0.00161283 560:0.0026336999 561:0.0029009299 562:0.0023402199 563:0.0067202202 564:0.0067202202 565:0.0076580802 566:0.022956399 567:0.0183006 568:0.036513001 569:0.0083791604 570:0.017702401 571:0.0147294 572:0.054445598 573:0.038986702 574:0.00170905 581:0.174496 582:0.174496 583:0.03033 584:0.091222003 586:0.64318401 587:0.062157702 588:0.48844001 589:0.1504 590:0.30313301 591:0.31747901 592:0.11308 593:0.093058899 595:0.00173052 596:0.00282588 597:0.0031126 598:0.00251098 599:0.0072105699 600:0.0072105699 601:0.0082168598 602:0.0246315 603:0.019635901 604:0.039177299 605:0.0089905597 606:0.018994 607:0.0158042 608:0.0584183 609:0.0418314 610:0.0018337501 617:0.089987598 618:0.089987598 626:0.0072105899 627:0.0072105899 631:0.092872001 632:0.00500305 633:0.021301299 634:0.0059031099 635:0.00749892 636:0.00749892 640:0.0046147802 642:0.0116322 643:0.00386754 644:0.018747499 645:0.021292901 646:0.0292893 647:0.030162601 648:0.0104483 653:0.31031701 654:0.31031701 662:0.024865299 663:0.024865299 667:0.32026401 668:0.0172527 669:0.073456101 670:0.020356501 671:0.0258596 672:0.0258596 676:0.015913799 678:0.040113099 679:0.013337 680:0.0646495 681:0.073427401 682:0.101002 683:0.104014 684:0.0360303 685:0.0059675798 698:0.0288436 699:0.0288436 700:0.0100684 701:0.0203394 702:0.0052426099 703:0.36483899 707:0.0029837899 708:0.0029837899 712:0.035805501 714:0.016889701 715:0.0056155799 716:0.086530998 717:0.14002 718:0.29646 719:0.54529601 720:0.33605301 721:0.00519461 734:0.025107499 735:0.025107499 736:0.0087642604 737:0.0177048 738:0.00456355 739:0.31758201 743:0.0025973001 744:0.0025973001 748:0.031167701 750:0.014702 751:0.0048882002 752:0.075322799 753:0.121883 754:0.25806001 755:0.47466499 756:0.29252401 775:0.0725521 777:0.00551333 778:0.0018331 779:0.0086578401 780:0.0099871401 781:0.00764139 782:0.0122134 783:0.038882598 784:0.16878299 785:0.121975 786:0.080295198 787:0.019654499 788:0.47729999 789:0.45886299 790:0.00122208 791:0.019551599 792:0.0455155 811:0.074345902 813:0.0056496402 814:0.00187842 815:0.0088718999 816:0.0102341 817:0.0078303199 818:0.0125153 819:0.039843898 820:0.172956 821:0.124991 822:0.082280397 823:0.0201404 824:0.48910099 825:0.47020799 826:0.00125229 827:0.020035001 828:0.046640798 833:0.39213601 834:0.39213601 842:0.13662601 843:0.13662601 851:0.0106463 852:0.0106463 853:0.00062612898 854:0.016269499 855:0.039682299 856:0.175749 857:0.26275301 858:0.135609 859:0.034217902 860:0.089793302 861:0.0484844 869:0.38666001 870:0.38666001 878:0.134718 879:0.134718 887:0.0104976 888:0.0104976 889:0.00061738602 890:0.0160423 891:0.039128199 892:0.17329399 893:0.259083 894:0.133715 895:0.0337401 896:0.088539399 897:0.047807299 919:0.0113614 920:0.0102017 923:0.0069984398 924:0.0090129804 925:0.0097221704 926:0.0176508 927:0.083329298 928:0.52225399 929:0.41658199 930:0.22645099 931:0.126754 932:0.093230799 933:0.079606697 934:0.00061738398 935:0.00185688 955:0.0135371 956:0.0121554 959:0.00833862 960:0.0107389 961:0.0115839 962:0.0210308 963:0.099286601 964:0.62226403 965:0.49635601 966:0.26981601 967:0.15102801 968:0.111084 969:0.094851203 970:0.000735612 971:0.0022124699 995:0.0093808603 996:0.0139801 997:0.0066268998 998:0.021464599 999:0.0621536 1000:0.354435 1001:0.16499799 1002:0.25477001 1003:0.083258897 1004:0.071760803 1005:0.063339204 1006:0.0038612401 1013:0.0217786 1014:0.0217786 1015:0.0043916102 1016:0.0132084 1018:0.0124451 1045:0.0186671 1046:0.0304827 1047:0.033575598 1048:0.0270859 1049:0.0777805 1050:0.0777805 1051:0.088635303 1052:0.26570001 1053:0.211812 1054:0.42260501 1055:0.096981101 1056:0.204889 1057:0.17048 1058:0.63015801 1059:0.45123601 1060:0.019780699 1081:0.0120316 1082:0.0196472 1083:0.021640601 1084:0.0174578 1085:0.0501321 1086:0.0501321 1087:0.0571285 1088:0.171253 1089:0.13652 1090:0.272383 1091:0.0625076 1092:0.13205799 1093:0.10988 1094:0.406158 1095:0.29083699 1096:0.0127493 1117:0.64570099 1118:0.034784202 1119:0.14809901 1120:0.041041899 1121:0.052136902 1122:0.052136902 1126:0.0320847 1128:0.080874197 1129:0.026889401 1130:0.13034301 1131:0.148041 1132:0.20363601 1133:0.20970801 1134:0.072642602 1153:0.35719001 1154:0.019241899 1155:0.081925496 1156:0.022703599 1157:0.028841199 1158:0.028841199 1162:0.0177486 1164:0.044738099 1165:0.0148747 1166:0.0721035 1167:0.081893504 1168:0.112648 1169:0.116007 1170:0.040184502 1189:0.40690401 1193:0.00332782 1194:0.00332782 1198:0.039933801 1200:0.0188371 1201:0.0062630498 1202:0.096507899 1203:0.15616401 1204:0.330641 1205:0.60816801 1206:0.37479901 1225:0.31785199 1229:0.0025995099 1230:0.0025995099 1234:0.031194201 1236:0.0147145 1237:0.00489236 1238:0.0753868 1239:0.121987 1240:0.258279 1241:0.475068 1242:0.29277301 1261:0.072613902 1263:0.0055180201 1264:0.00183466 1265:0.0086652003 1266:0.0099956403 1267:0.0076478901 1268:0.0122237 1269:0.038915601 1270:0.168926 1271:0.122079 1272:0.080363497 1273:0.0196712 1274:0.47770599 1275:0.45925301 1276:0.00122312 1277:0.019568199 1278:0.045554198 1297:0.091853403 1299:0.0069800601 1300:0.0023207699 1301:0.0109611 1302:0.0126441 1303:0.0096742501 1304:0.0154625 1305:0.049226601 1306:0.21368399 1307:0.154425 1308:0.101656 1309:0.024883199 1310:0.60427803 1311:0.58093601 1312:0.00154719 1313:0.024753001 1314:0.057624102 1337:0.0131534 1338:0.0131534 1339:0.00077357399 1340:0.0201007 1341:0.049026899 1342:0.217135 1343:0.32462701 1344:0.16754299 1345:0.042275801 1346:0.110938 1347:0.0599018 1373:0.012876 1374:0.012876 1375:0.00075726397 1376:0.0196769 1377:0.047993299 1378:0.212557 1379:0.317783 1380:0.16401 1381:0.0413845 1382:0.108599 1383:0.0586388 1405:0.0139355 1406:0.0125131 1409:0.0085840402 1410:0.011055 1411:0.0119249 1412:0.0216498 1413:0.102209 1414:0.64057797 1415:0.51096499 1416:0.27775699 1417:0.15547299 1418:0.114354 1419:0.097642802 1420:0.00075726199 1421:0.0022775901 1441:0.0135371 1442:0.0121554 1445:0.00833862 1446:0.0107389 1447:0.0115839 1448:0.0210308 1449:0.099286601 1450:0.62226403 1451:0.49635601 1452:0.26981601 1453:0.15102801 1454:0.111084 1455:0.094851203 1456:0.000735612 1457:0.0022124699 1481:0.0093808603 1482:0.0139801 1483:0.0066268998 1484:0.021464599 1485:0.0621536 1486:0.354435 1487:0.16499799 1488:0.25477001 1489:0.083258897 1490:0.071760803 1491:0.063339204 1492:0.0038612401 #
